{"learner":{"attributes":{"scikit_learn":"{\"_estimator_type\": \"regressor\"}"},"feature_names":["trip_duration","distance_traveled","num_of_passengers"],"feature_types":["float","float","float"],"gradient_booster":{"model":{"gbtree_model_param":{"num_parallel_tree":"1","num_trees":"100"},"iteration_indptr":[0,1,2,3,4,5,6,7,8,9,10,11,12,13,14,15,16,17,18,19,20,21,22,23,24,25,26,27,28,29,30,31,32,33,34,35,36,37,38,39,40,41,42,43,44,45,46,47,48,49,50,51,52,53,54,55,56,57,58,59,60,61,62,63,64,65,66,67,68,69,70,71,72,73,74,75,76,77,78,79,80,81,82,83,84,85,86,87,88,89,90,91,92,93,94,95,96,97,98,99,100],"tree_info":[0,0,0,0,0,0,0,0,0,0,0,0,0,0,0,0,0,0,0,0,0,0,0,0,0,0,0,0,0,0,0,0,0,0,0,0,0,0,0,0,0,0,0,0,0,0,0,0,0,0,0,0,0,0,0,0,0,0,0,0,0,0,0,0,0,0,0,0,0,0,0,0,0,0,0,0,0,0,0,0,0,0,0,0,0,0,0,0,0,0,0,0,0,0,0,0,0,0,0,0],"trees":[{"base_weights":[-1.9943259E-6,-2.2674532E1,1.3009007E2,-3.8945328E1,1.3320927E1,1.00483604E2,3.2484027E2,-4.770335E1,-2.1560705E1,3.227147E0,4.909807E1,8.191687E1,1.5865767E2,2.7394388E2,5.2762274E2,4.5337616E1,-4.949732E1,-2.694738E1,-5.479483E0,-5.769554E0,1.697608E1,3.9339592E1,8.350773E1,7.307058E1,1.46802E2,1.4985782E2,2.851256E2,2.6141016E2,4.1701593E2,4.3561783E2,6.590513E2,7.029943E1,1.9689909E1,-5.6432003E1,-4.184445E1,-3.0566362E1,-2.1840796E1,-1.1025621E1,8.076434E0,-1.2923095E1,3.8961542E0,1.2196228E1,3.0178288E1,3.1420446E1,4.865897E1,8.913177E1,1.8364819E1,6.2686684E1,9.2399635E1,1.2890558E2,2.105782E2,1.3988954E2,1.8796568E2,2.5171768E2,3.0419907E2,2.285073E2,2.9565073E2,3.488579E2,4.3052066E2,4.1736874E2,1.4885692E2,6.4769403E2,5.554205E2,2.2559847E1,-5.2125134E0,1.5322553E-1,3.2756374E1,-7.0583034E0,-1.7115194E1,-1.3543529E1,-1.0760336E1,-1.0161809E1,-8.070029E0,-7.371212E0,-5.512843E0,-4.0631404E0,-1.8658249E0,4.325077E0,-8.630396E0,-5.824254E0,-3.02931E0,-8.834544E-2,3.1765714E0,2.0865698E0,6.4602933E0,8.094996E0,1.1153382E1,7.810024E0,1.2376996E1,1.2943719E1,1.6981184E1,2.3230236E1,4.7554565E1,-3.8934872E-1,8.97653E0,1.526502E1,2.2419205E1,2.4688494E1,3.1378925E1,3.6389668E1,4.636397E1,1.9103914E2,6.0289936E1,3.7320217E1,4.7276867E1,5.3842396E1,6.0985435E1,8.256564E1,4.4409515E1,7.800284E1,1.0144421E2,6.412173E1,8.0749916E1,8.5316154E1,9.4060524E1,1.0973421E2,4.7172718E1,1.23753E2,1.5452971E2,1.1494472E2,1.3385986E2,1.8983313E2,2.9078183E2],"categories":[],"categories_nodes":[],"categories_segments":[],"categories_sizes":[],"default_left":[0,0,0,0,0,0,0,0,0,0,0,0,0,0,0,0,0,0,0,0,0,0,0,0,0,0,0,0,0,0,0,0,0,0,0,0,0,0,0,0,0,0,0,0,0,0,0,0,0,0,0,0,0,0,0,0,0,0,0,0,0,0,0,0,0,0,0,0,0,0,0,0,0,0,0,0,0,0,0,0,0,0,0,0,0,0,0,0,0,0,0,0,0,0,0,0,0,0,0,0,0,0,0,0,0,0,0,0,0,0,0,0,0,0,0,0,0,0,0,0,0,0,0],"id":0,"left_children":[1,3,5,7,9,11,13,15,17,19,21,23,25,27,29,31,33,35,37,39,41,43,45,47,49,51,53,55,57,59,61,63,65,67,69,71,73,75,77,79,81,83,85,87,89,91,93,95,97,99,101,103,105,107,109,111,113,115,117,119,-1,121,-1,-1,-1,-1,-1,-1,-1,-1,-1,-1,-1,-1,-1,-1,-1,-1,-1,-1,-1,-1,-1,-1,-1,-1,-1,-1,-1,-1,-1,-1,-1,-1,-1,-1,-1,-1,-1,-1,-1,-1,-1,-1,-1,-1,-1,-1,-1,-1,-1,-1,-1,-1,-1,-1,-1,-1,-1,-1,-1,-1,-1],"loss_changes":[4.94782E8,8.36589E7,1.4352013E8,1.497688E7,1.6058417E7,2.3331248E7,3.3759584E7,1.0921184E7,2.854817E6,4.290337E6,3.28238E6,9.39472E6,5.775504E6,4.603584E6,7.669472E6,7.9119975E5,3.40368E6,4.55582E5,6.219276E5,1.4497245E6,8.653635E5,5.61208E5,7.90081E5,2.888864E6,2.21564E6,1.831256E6,1.3944E5,2.657712E6,4.31E4,2.24008E5,2.443616E6,2.70672E5,1.05044E6,6.83984E5,6.00324E5,1.74202E5,9.64285E4,7.095975E4,5.6154994E5,2.2078125E5,2.5011289E5,4.9288025E5,8.05345E4,2.1750175E5,1.509105E5,1.602045E6,3.9351383E4,1.33036E6,6.12296E5,2.81032E5,1.629514E6,1.044112E6,9.502E4,2.73598E5,2.28612E5,6.85844E5,1.48944E5,7.21905E4,4.8004E4,1.30932E5,0E0,6.72256E5,0E0,0E0,0E0,0E0,0E0,0E0,0E0,0E0,0E0,0E0,0E0,0E0,0E0,0E0,0E0,0E0,0E0,0E0,0E0,0E0,0E0,0E0,0E0,0E0,0E0,0E0,0E0,0E0,0E0,0E0,0E0,0E0,0E0,0E0,0E0,0E0,0E0,0E0,0E0,0E0,0E0,0E0,0E0,0E0,0E0,0E0,0E0,0E0,0E0,0E0,0E0,0E0,0E0,0E0,0E0,0E0,0E0,0E0,0E0,0E0,0E0],"parents":[2147483647,0,0,1,1,2,2,3,3,4,4,5,5,6,6,7,7,8,8,9,9,10,10,11,11,12,12,13,13,14,14,15,15,16,16,17,17,18,18,19,19,20,20,21,21,22,22,23,23,24,24,25,25,26,26,27,27,28,28,29,29,30,30,31,31,32,32,33,33,34,34,35,35,36,36,37,37,38,38,39,39,40,40,41,41,42,42,43,43,44,44,45,45,46,46,47,47,48,48,49,49,50,50,51,51,52,52,53,53,54,54,55,55,56,56,57,57,58,58,59,59,61,61],"right_children":[2,4,6,8,10,12,14,16,18,20,22,24,26,28,30,32,34,36,38,40,42,44,46,48,50,52,54,56,58,60,62,64,66,68,70,72,74,76,78,80,82,84,86,88,90,92,94,96,98,100,102,104,106,108,110,112,114,116,118,120,-1,122,-1,-1,-1,-1,-1,-1,-1,-1,-1,-1,-1,-1,-1,-1,-1,-1,-1,-1,-1,-1,-1,-1,-1,-1,-1,-1,-1,-1,-1,-1,-1,-1,-1,-1,-1,-1,-1,-1,-1,-1,-1,-1,-1,-1,-1,-1,-1,-1,-1,-1,-1,-1,-1,-1,-1,-1,-1,-1,-1,-1,-1],"split_conditions":[8.26E0,3.85E0,1.947E1,6.08E2,1.352E3,1.357E1,3.053E1,2.4E1,8.97E2,5.34E0,1.955E3,2.302E3,3.99E3,4.944E3,3.99E3,6E0,4.06E2,7.38E2,1.154E3,9.35E2,6.98E0,6.28E0,2.488E4,1.11E1,3.491E3,2.489E3,1.561E1,2.351E1,2.124E1,2E0,3.1525E2,1.01E0,2E0,5.4E1,2.46E0,2.82E0,3.15E0,1.021E3,4.944E3,6.85E2,1.125E3,1.07E3,1.125E3,1.586E3,1.632E3,2.928E3,5.07E0,1.309E3,1.482E3,2.928E3,8.4E0,1.561E1,3.154E3,2.488E4,4.944E3,2.928E3,2.928E3,2.488E4,2.488E4,2.744E3,1.4885692E2,2.488E4,5.554205E2,2.2559847E1,-5.2125134E0,1.5322553E-1,3.2756374E1,-7.0583034E0,-1.7115194E1,-1.3543529E1,-1.0760336E1,-1.0161809E1,-8.070029E0,-7.371212E0,-5.512843E0,-4.0631404E0,-1.8658249E0,4.325077E0,-8.630396E0,-5.824254E0,-3.02931E0,-8.834544E-2,3.1765714E0,2.0865698E0,6.4602933E0,8.094996E0,1.1153382E1,7.810024E0,1.2376996E1,1.2943719E1,1.6981184E1,2.3230236E1,4.7554565E1,-3.8934872E-1,8.97653E0,1.526502E1,2.2419205E1,2.4688494E1,3.1378925E1,3.6389668E1,4.636397E1,1.9103914E2,6.0289936E1,3.7320217E1,4.7276867E1,5.3842396E1,6.0985435E1,8.256564E1,4.4409515E1,7.800284E1,1.0144421E2,6.412173E1,8.0749916E1,8.5316154E1,9.4060524E1,1.0973421E2,4.7172718E1,1.23753E2,1.5452971E2,1.1494472E2,1.3385986E2,1.8983313E2,2.9078183E2],"split_indices":[1,1,1,0,0,1,1,0,0,1,0,0,0,0,0,0,0,0,0,0,1,1,0,1,0,0,1,1,1,2,1,1,2,0,1,1,1,0,0,0,0,0,0,0,0,0,1,0,0,0,1,1,0,0,0,0,0,0,0,0,0,0,0,0,0,0,0,0,0,0,0,0,0,0,0,0,0,0,0,0,0,0,0,0,0,0,0,0,0,0,0,0,0,0,0,0,0,0,0,0,0,0,0,0,0,0,0,0,0,0,0,0,0,0,0,0,0,0,0,0,0,0,0],"split_type":[0,0,0,0,0,0,0,0,0,0,0,0,0,0,0,0,0,0,0,0,0,0,0,0,0,0,0,0,0,0,0,0,0,0,0,0,0,0,0,0,0,0,0,0,0,0,0,0,0,0,0,0,0,0,0,0,0,0,0,0,0,0,0,0,0,0,0,0,0,0,0,0,0,0,0,0,0,0,0,0,0,0,0,0,0,0,0,0,0,0,0,0,0,0,0,0,0,0,0,0,0,0,0,0,0,0,0,0,0,0,0,0,0,0,0,0,0,0,0,0,0,0,0],"sum_hessian":[1.67736E5,1.4284E5,2.4896E4,9.8373E4,4.4467E4,2.1612E4,3.284E3,6.5416E4,3.2957E4,3.4683E4,9.784E3,1.6385E4,5.227E3,2.627E3,6.57E2,1.237E3,6.4179E4,2.4687E4,8.27E3,2.0965E4,1.3718E4,7.624E3,2.16E3,1.4421E4,1.964E3,4.889E3,3.38E2,2.418E3,2.09E2,3.89E2,2.68E2,6.26E2,6.11E2,3.3666E4,3.0513E4,1.4445E4,1.0242E4,5.869E3,2.401E3,1.2048E4,8.917E3,1.0073E4,3.645E3,4.124E3,3.5E3,1.988E3,1.72E2,9.384E3,5.037E3,1.536E3,4.28E2,3.879E3,1.01E3,1.28E2,2.1E2,1.237E3,1.181E3,3.9E1,1.7E2,3.05E2,8.4E1,2.67E2,1E0,5.93E2,3.3E1,5.04E2,1.07E2,6.22E2,3.3044E4,1.9653E4,1.086E4,7.591E3,6.854E3,5.725E3,4.517E3,3.85E3,2.019E3,2.049E3,3.52E2,3.652E3,8.396E3,5.484E3,3.433E3,6.453E3,3.62E3,2.506E3,1.139E3,2.667E3,1.457E3,2.07E3,1.43E3,1.703E3,2.85E2,6.4E1,1.08E2,4.742E3,4.642E3,2.759E3,2.278E3,1.189E3,3.47E2,8E0,4.2E2,2.073E3,1.806E3,6.58E2,3.52E2,1.03E2,2.5E1,9.5E1,1.15E2,9.12E2,3.25E2,7.35E2,4.46E2,3.5E1,4E0,1.45E2,2.5E1,1.46E2,1.59E2,2.58E2,9E0],"tree_param":{"num_deleted":"0","num_feature":"3","num_nodes":"123","size_leaf_vector":"1"}},{"base_weights":[1.9307999E-2,-1.4409791E1,1.0110702E2,-2.5888618E1,1.5455965E1,7.749779E1,2.2805582E2,-3.2747967E1,-1.2710778E1,8.552107E0,4.453513E1,6.811626E1,1.3271071E2,1.920497E2,3.7151477E2,3.1419859E1,-3.391392E1,-1.6454865E1,-1.0178462E-1,2.8053284E0,2.1537819E1,3.7080154E1,7.476022E1,5.8493748E1,1.0169323E2,1.1796452E2,1.8342635E2,1.7795366E2,2.6212366E2,3.2165146E2,5.105376E2,3.670928E1,-3.854112E1,-3.968787E1,-2.7606817E1,-1.9177702E1,-1.1947439E1,-4.2674727E0,1.1359543E1,-2.6590614E0,1.051356E1,1.6138245E1,2.6904364E1,3.0647036E1,4.4364975E1,5.7500465E1,8.523597E1,5.262202E1,7.590462E1,9.262217E1,1.1543788E2,1.0548104E2,1.3546486E2,2.0018658E2,1.2259532E2,1.5461852E2,2.0358362E2,2.3176257E2,2.939835E2,3.0595215E2,3.808462E2,4.9511746E2,4.721074E2,8.7226515E0,2.2561665E1,-1.6017515E1,-3.6516612E0,-1.2850675E1,-1.0529154E1,-8.973417E0,-6.44918E0,-6.4511886E0,-4.686145E0,-4.6050625E0,-3.052695E0,-1.8196126E0,-5.241941E-1,5.130851E0,-6.7059035E0,-1.7888716E0,3.814672E-1,1.8656385E0,4.5712132E0,3.632686E0,6.8569703E0,2.1601845E1,7.9102926E0,7.880265E0,1.1376505E1,1.156482E1,1.51436825E1,2.0920004E1,3.3786356E0,2.2362965E1,4.171202E1,1.4102218E1,1.9370064E1,2.095991E1,2.5488493E1,2.5489029E1,3.1155678E1,7.380588E1,3.448751E1,2.9528318E1,3.671924E1,3.81389E1,4.278298E1,5.3575478E1,6.788873E1,1.5959265E2,2.93697E1,4.2271694E1,5.0362705E1,5.766203E1,6.435807E1,6.538094E1,8.994964E1,9.1862816E1,7.2269775E1,8.789136E1,1.0472522E2,1.1479626E2,3.0820478E1,1.4368408E2,2.1227072E2],"categories":[],"categories_nodes":[],"categories_segments":[],"categories_sizes":[],"default_left":[0,0,0,0,0,0,0,0,0,0,0,0,0,0,0,0,0,0,0,0,0,0,0,0,0,0,0,0,0,0,0,0,0,0,0,0,0,0,0,0,0,0,0,0,0,0,0,0,0,0,0,0,0,0,0,0,0,0,0,0,0,0,0,0,0,0,0,0,0,0,0,0,0,0,0,0,0,0,0,0,0,0,0,0,0,0,0,0,0,0,0,0,0,0,0,0,0,0,0,0,0,0,0,0,0,0,0,0,0,0,0,0,0,0,0,0,0,0,0,0,0,0,0,0,0],"id":1,"left_children":[1,3,5,7,9,11,13,15,17,19,21,23,25,27,29,31,33,35,37,39,41,43,45,47,49,51,53,55,57,59,61,63,65,67,69,71,73,75,77,79,81,83,85,87,89,91,93,95,97,99,101,103,105,107,109,111,113,115,117,119,121,123,-1,-1,-1,-1,-1,-1,-1,-1,-1,-1,-1,-1,-1,-1,-1,-1,-1,-1,-1,-1,-1,-1,-1,-1,-1,-1,-1,-1,-1,-1,-1,-1,-1,-1,-1,-1,-1,-1,-1,-1,-1,-1,-1,-1,-1,-1,-1,-1,-1,-1,-1,-1,-1,-1,-1,-1,-1,-1,-1,-1,-1,-1,-1],"loss_changes":[2.4466341E8,5.0322144E7,6.2778896E7,9.584048E6,8.181328E6,9.142664E6,1.6896992E7,5.218336E6,1.7136905E6,2.4578218E6,1.759062E6,4.87408E6,1.896628E6,2.549208E6,4.397128E6,4.6213062E5,2.493096E6,3.432795E5,3.9689922E5,9.617718E5,2.9235E5,2.92667E5,2.7463E5,1.196416E6,4.086E5,4.20458E5,5.62716E5,1.278912E6,3.55544E5,3.36056E5,2.0406E6,3.38117E5,3.3810367E4,5.15152E5,4.6029E5,1.440385E5,6.3407375E4,2.7614906E4,4.294466E5,1.7352853E5,1.9207025E5,1.361295E5,1.20735E5,1.052545E5,1.025895E5,3.3123838E5,5.41937E5,5.86072E5,1.55886E5,1.65858E5,5.5186E4,1.27076E5,3.1003E4,2.13388E5,1.231914E6,1.8559E5,8.8372E4,1.50177E5,6.2524E4,1.16088E5,9.965E3,2.4858E5,0E0,0E0,0E0,0E0,0E0,0E0,0E0,0E0,0E0,0E0,0E0,0E0,0E0,0E0,0E0,0E0,0E0,0E0,0E0,0E0,0E0,0E0,0E0,0E0,0E0,0E0,0E0,0E0,0E0,0E0,0E0,0E0,0E0,0E0,0E0,0E0,0E0,0E0,0E0,0E0,0E0,0E0,0E0,0E0,0E0,0E0,0E0,0E0,0E0,0E0,0E0,0E0,0E0,0E0,0E0,0E0,0E0,0E0,0E0,0E0,0E0,0E0,0E0],"parents":[2147483647,0,0,1,1,2,2,3,3,4,4,5,5,6,6,7,7,8,8,9,9,10,10,11,11,12,12,13,13,14,14,15,15,16,16,17,17,18,18,19,19,20,20,21,21,22,22,23,23,24,24,25,25,26,26,27,27,28,28,29,29,30,30,31,31,32,32,33,33,34,34,35,35,36,36,37,37,38,38,39,39,40,40,41,41,42,42,43,43,44,44,45,45,46,46,47,47,48,48,49,49,50,50,51,51,52,52,53,53,54,54,55,55,56,56,57,57,58,58,59,59,60,60,61,61],"right_children":[2,4,6,8,10,12,14,16,18,20,22,24,26,28,30,32,34,36,38,40,42,44,46,48,50,52,54,56,58,60,62,64,66,68,70,72,74,76,78,80,82,84,86,88,90,92,94,96,98,100,102,104,106,108,110,112,114,116,118,120,122,124,-1,-1,-1,-1,-1,-1,-1,-1,-1,-1,-1,-1,-1,-1,-1,-1,-1,-1,-1,-1,-1,-1,-1,-1,-1,-1,-1,-1,-1,-1,-1,-1,-1,-1,-1,-1,-1,-1,-1,-1,-1,-1,-1,-1,-1,-1,-1,-1,-1,-1,-1,-1,-1,-1,-1,-1,-1,-1,-1,-1,-1,-1,-1],"split_conditions":[9.17E0,4.23E0,1.947E1,6.33E2,1.501E3,2.489E3,3.053E1,2.4E1,9.62E2,6.34E0,2.23E3,1.4E1,3.99E3,3.99E3,4.944E3,1.01E0,1.88E0,7.92E2,1.269E3,1.029E3,7.45E0,1.739E3,6.68E0,1.739E3,1.635E1,1.453E1,2.488E4,2.351E1,4.944E3,3.99E3,3.1525E2,2E0,2.61E0,3.45E2,2.82E0,3.15E0,3.03E0,1.079E3,2.488E4,5.01E0,1.209E3,1.154E3,5.32E2,7.1E0,7.1E0,2.488E4,3.491E3,1.18E1,1.18E1,1.769E3,8.34E2,3.154E3,2.928E3,4.944E3,9.33E0,2.23E3,2.737E1,2E0,2E0,2E0,4E0,2.488E4,4.721074E2,8.7226515E0,2.2561665E1,-1.6017515E1,-3.6516612E0,-1.2850675E1,-1.0529154E1,-8.973417E0,-6.44918E0,-6.4511886E0,-4.686145E0,-4.6050625E0,-3.052695E0,-1.8196126E0,-5.241941E-1,5.130851E0,-6.7059035E0,-1.7888716E0,3.814672E-1,1.8656385E0,4.5712132E0,3.632686E0,6.8569703E0,2.1601845E1,7.9102926E0,7.880265E0,1.1376505E1,1.156482E1,1.51436825E1,2.0920004E1,3.3786356E0,2.2362965E1,4.171202E1,1.4102218E1,1.9370064E1,2.095991E1,2.5488493E1,2.5489029E1,3.1155678E1,7.380588E1,3.448751E1,2.9528318E1,3.671924E1,3.81389E1,4.278298E1,5.3575478E1,6.788873E1,1.5959265E2,2.93697E1,4.2271694E1,5.0362705E1,5.766203E1,6.435807E1,6.538094E1,8.994964E1,9.1862816E1,7.2269775E1,8.789136E1,1.0472522E2,1.1479626E2,3.0820478E1,1.4368408E2,2.1227072E2],"split_indices":[1,1,1,0,0,0,1,0,0,1,0,1,0,0,0,1,1,0,0,0,1,0,1,0,1,1,0,1,0,0,1,2,1,0,1,1,1,0,0,1,0,0,0,1,1,0,0,1,1,0,0,0,0,0,1,0,1,2,2,2,2,0,0,0,0,0,0,0,0,0,0,0,0,0,0,0,0,0,0,0,0,0,0,0,0,0,0,0,0,0,0,0,0,0,0,0,0,0,0,0,0,0,0,0,0,0,0,0,0,0,0,0,0,0,0,0,0,0,0,0,0,0,0,0,0],"split_type":[0,0,0,0,0,0,0,0,0,0,0,0,0,0,0,0,0,0,0,0,0,0,0,0,0,0,0,0,0,0,0,0,0,0,0,0,0,0,0,0,0,0,0,0,0,0,0,0,0,0,0,0,0,0,0,0,0,0,0,0,0,0,0,0,0,0,0,0,0,0,0,0,0,0,0,0,0,0,0,0,0,0,0,0,0,0,0,0,0,0,0,0,0,0,0,0,0,0,0,0,0,0,0,0,0,0,0,0,0,0,0,0,0,0,0,0,0,0,0,0,0,0,0,0,0],"sum_hessian":[1.67736E5,1.46785E5,2.0951E4,1.06032E5,4.0753E4,1.7667E4,3.284E3,6.9733E4,3.6299E4,3.2935E4,7.818E3,1.5103E4,2.564E3,2.627E3,6.57E2,1.244E3,6.8489E4,2.7988E4,8.311E3,2.2832E4,1.0103E4,6.273E3,1.545E3,1.1741E4,3.362E3,1.989E3,5.75E2,2.19E3,4.37E2,4.86E2,1.71E2,1.157E3,8.7E1,3.5753E4,3.2736E4,1.7446E4,1.0542E4,6.096E3,2.215E3,1.3361E4,9.471E3,5.038E3,5.065E3,3.334E3,2.939E3,5.86E2,9.59E2,8.783E3,2.958E3,2.03E3,1.332E3,1.165E3,8.24E2,4.49E2,1.26E2,1.15E3,1.04E3,2.28E2,2.09E2,3.89E2,9.7E1,1.7E2,1E0,9.67E2,1.9E2,5.5E1,3.2E1,2.1205E4,1.4548E4,2.3767E4,8.969E3,1.0545E4,6.901E3,3.607E3,6.935E3,3.557E3,2.539E3,1.893E3,3.22E2,7.259E3,6.102E3,4.962E3,4.509E3,3.151E3,1.887E3,5.8E1,5.007E3,2.084E3,1.25E3,1.51E3,1.429E3,4.63E2,1.23E2,8.02E2,1.57E2,5.978E3,2.805E3,1.78E3,1.178E3,1.212E3,8.18E2,3E0,1.329E3,8.27E2,3.38E2,3.89E2,4.35E2,2.5E2,1.99E2,6E0,1.2E2,5.71E2,5.79E2,5.19E2,5.21E2,1.93E2,3.5E1,1.66E2,4.3E1,3.05E2,8.4E1,9.6E1,1E0,1.61E2,9E0],"tree_param":{"num_deleted":"0","num_feature":"3","num_nodes":"125","size_leaf_vector":"1"}},{"base_weights":[2.8613003E-2,-9.761937E0,7.3436165E1,-1.768391E1,1.2608346E1,5.813045E1,1.7337701E2,-2.4119583E1,-9.953618E0,6.678828E0,3.041154E1,4.757285E1,8.696418E1,1.4365335E2,2.6183282E2,1.3385945E1,-2.533652E1,-1.3575242E1,-2.4771028E0,2.7128143E0,1.5240497E1,2.6498865E1,6.3639385E1,4.0647285E1,7.064641E1,8.148376E1,1.49574E2,1.3679556E2,2.1475987E2,2.2585054E2,3.621906E2,3.9524193E1,1.908021E-1,-2.9702543E1,-2.1647047E1,-1.5209734E1,-1.002481E1,-4.1132894E0,1.3084195E1,-1.577315E0,7.0035353E0,1.082094E1,1.8933954E1,2.2490995E1,3.4930912E1,4.811894E1,7.585079E1,3.730559E1,5.1384026E1,6.3712276E1,9.730857E1,7.354878E1,9.509103E1,1.3521869E2,1.877446E2,1.2031504E2,1.4522684E2,2.3510593E2,1.7320122E2,1.9411916E2,2.4498271E2,3.4866382E2,4.012913E2,1.2464981E1,-1.0754001E1,-2.6678631E0,1.3298673E1,-9.838694E0,-8.051209E0,-6.7332897E0,-3.922629E0,-4.98971E0,-3.8647754E0,-3.4132931E0,-2.6738524E0,-1.8504814E0,-4.199916E-1,6.6770263E0,-4.164562E0,-1.0202543E0,5.573288E-1,1.3723431E0,3.2122424E0,8.747608E0,3.0241108E0,4.282121E0,6.6128216E0,5.321721E0,8.239686E0,9.353103E0,1.194264E1,1.8894875E1,2.1180923E0,1.8716167E1,3.8853127E1,8.562407E0,1.214495E1,1.3459182E1,1.7002914E1,1.7418163E1,2.1220995E1,3.2722946E1,6.056771E0,2.0737144E1,2.651365E1,2.583604E1,3.1258684E1,4.3499542E1,1.644806E1,4.4699066E1,1.4419759E2,3.2939472E1,4.1277626E1,4.149295E1,4.6887302E1,6.1381424E1,1.149069E2,5.7437084E1,1.4543761E1,5.9279995E1,1.6680214E1,1.6435104E2,7.264128E1,1.0220688E2,2.5564287E2],"categories":[],"categories_nodes":[],"categories_segments":[],"categories_sizes":[],"default_left":[0,0,0,0,0,0,0,0,0,0,0,0,0,0,0,0,0,0,0,0,0,0,0,0,0,0,0,0,0,0,0,0,0,0,0,0,0,0,0,0,0,0,0,0,0,0,0,0,0,0,0,0,0,0,0,0,0,0,0,0,0,0,0,0,0,0,0,0,0,0,0,0,0,0,0,0,0,0,0,0,0,0,0,0,0,0,0,0,0,0,0,0,0,0,0,0,0,0,0,0,0,0,0,0,0,0,0,0,0,0,0,0,0,0,0,0,0,0,0,0,0,0,0,0,0],"id":2,"left_children":[1,3,5,7,9,11,13,15,17,19,21,23,25,27,29,31,33,35,37,39,41,43,45,47,49,51,53,55,57,59,61,63,65,67,69,71,73,75,77,79,81,83,85,87,89,91,93,95,97,99,101,103,105,107,109,111,113,115,117,119,121,123,-1,-1,-1,-1,-1,-1,-1,-1,-1,-1,-1,-1,-1,-1,-1,-1,-1,-1,-1,-1,-1,-1,-1,-1,-1,-1,-1,-1,-1,-1,-1,-1,-1,-1,-1,-1,-1,-1,-1,-1,-1,-1,-1,-1,-1,-1,-1,-1,-1,-1,-1,-1,-1,-1,-1,-1,-1,-1,-1,-1,-1,-1,-1],"loss_changes":[1.2055335E8,2.6228128E7,3.0183976E7,5.437144E6,4.0856655E6,5.20714E6,6.853608E6,2.722464E6,1.3444815E6,9.8589625E5,1.255508E6,1.99987E6,1.561744E6,9.28336E5,2.294304E6,6.46676E5,9.29888E5,1.939685E5,4.1265238E5,3.6531278E5,1.4984E5,2.91639E5,1.8928825E5,3.44029E5,5.28471E5,4.48656E5,1.76259E5,2.31804E5,1.03869E5,2.48098E5,1.8031E6,9.75265E4,5.0036184E5,2.33572E5,2.13692E5,7.5614E4,1.5766E4,8.175517E4,3.8171928E5,6.2170008E4,8.922009E4,5.6567188E4,7.2210375E4,1.3822675E5,4.97735E4,2.7479812E5,4.02272E5,2.03729E5,7.6339E4,8.7123E4,5.3778E5,1.69102E5,1.17707E5,2.05114E5,1.0406585E6,9.6275E4,6.8844E4,4.26936E5,1.27331625E5,7.9659E4,1.25844E5,3.96224E5,0E0,0E0,0E0,0E0,0E0,0E0,0E0,0E0,0E0,0E0,0E0,0E0,0E0,0E0,0E0,0E0,0E0,0E0,0E0,0E0,0E0,0E0,0E0,0E0,0E0,0E0,0E0,0E0,0E0,0E0,0E0,0E0,0E0,0E0,0E0,0E0,0E0,0E0,0E0,0E0,0E0,0E0,0E0,0E0,0E0,0E0,0E0,0E0,0E0,0E0,0E0,0E0,0E0,0E0,0E0,0E0,0E0,0E0,0E0,0E0,0E0,0E0,0E0],"parents":[2147483647,0,0,1,1,2,2,3,3,4,4,5,5,6,6,7,7,8,8,9,9,10,10,11,11,12,12,13,13,14,14,15,15,16,16,17,17,18,18,19,19,20,20,21,21,22,22,23,23,24,24,25,25,26,26,27,27,28,28,29,29,30,30,31,31,32,32,33,33,34,34,35,35,36,36,37,37,38,38,39,39,40,40,41,41,42,42,43,43,44,44,45,45,46,46,47,47,48,48,49,49,50,50,51,51,52,52,53,53,54,54,55,55,56,56,57,57,58,58,59,59,60,60,61,61],"right_children":[2,4,6,8,10,12,14,16,18,20,22,24,26,28,30,32,34,36,38,40,42,44,46,48,50,52,54,56,58,60,62,64,66,68,70,72,74,76,78,80,82,84,86,88,90,92,94,96,98,100,102,104,106,108,110,112,114,116,118,120,122,124,-1,-1,-1,-1,-1,-1,-1,-1,-1,-1,-1,-1,-1,-1,-1,-1,-1,-1,-1,-1,-1,-1,-1,-1,-1,-1,-1,-1,-1,-1,-1,-1,-1,-1,-1,-1,-1,-1,-1,-1,-1,-1,-1,-1,-1,-1,-1,-1,-1,-1,-1,-1,-1,-1,-1,-1,-1,-1,-1,-1,-1,-1,-1],"split_conditions":[9.5E0,4.43E0,2.124E1,5.6E2,1.429E3,1.453E1,3.053E1,5.4E1,8.51E2,6.49E0,2.489E3,2.001E3,3.99E3,4.944E3,4.944E3,6E0,1.63E0,3.32E0,1.429E3,9.69E2,9.98E2,1.838E3,7.24E0,1.257E1,3.154E3,2.166E3,2E0,2.351E1,2.737E1,2.744E3,3.1525E2,4E0,2E0,2.78E2,3.19E0,6.94E2,7.11E2,1.005E3,4.944E3,5.54E0,5.47E0,5.32E2,7.45E0,6.76E0,7.58E0,2.488E4,3.99E3,1.079E3,1.382E3,1.205E1,2.488E4,1.806E1,1.714E1,2.488E4,2.488E4,2.607E3,2.928E3,2.488E4,2.488E4,5E0,1E0,4E0,4.012913E2,1.2464981E1,-1.0754001E1,-2.6678631E0,1.3298673E1,-9.838694E0,-8.051209E0,-6.7332897E0,-3.922629E0,-4.98971E0,-3.8647754E0,-3.4132931E0,-2.6738524E0,-1.8504814E0,-4.199916E-1,6.6770263E0,-4.164562E0,-1.0202543E0,5.573288E-1,1.3723431E0,3.2122424E0,8.747608E0,3.0241108E0,4.282121E0,6.6128216E0,5.321721E0,8.239686E0,9.353103E0,1.194264E1,1.8894875E1,2.1180923E0,1.8716167E1,3.8853127E1,8.562407E0,1.214495E1,1.3459182E1,1.7002914E1,1.7418163E1,2.1220995E1,3.2722946E1,6.056771E0,2.0737144E1,2.651365E1,2.583604E1,3.1258684E1,4.3499542E1,1.644806E1,4.4699066E1,1.4419759E2,3.2939472E1,4.1277626E1,4.149295E1,4.6887302E1,6.1381424E1,1.149069E2,5.7437084E1,1.4543761E1,5.9279995E1,1.6680214E1,1.6435104E2,7.264128E1,1.0220688E2,2.5564287E2],"split_indices":[1,1,1,0,0,1,1,0,0,1,0,0,0,0,0,0,1,1,0,0,0,0,1,1,0,0,2,1,1,0,1,2,2,0,1,0,0,0,0,1,1,0,1,1,1,0,0,0,0,1,0,1,1,0,0,0,0,0,0,2,2,2,0,0,0,0,0,0,0,0,0,0,0,0,0,0,0,0,0,0,0,0,0,0,0,0,0,0,0,0,0,0,0,0,0,0,0,0,0,0,0,0,0,0,0,0,0,0,0,0,0,0,0,0,0,0,0,0,0,0,0,0,0,0,0],"split_type":[0,0,0,0,0,0,0,0,0,0,0,0,0,0,0,0,0,0,0,0,0,0,0,0,0,0,0,0,0,0,0,0,0,0,0,0,0,0,0,0,0,0,0,0,0,0,0,0,0,0,0,0,0,0,0,0,0,0,0,0,0,0,0,0,0,0,0,0,0,0,0,0,0,0,0,0,0,0,0,0,0,0,0,0,0,0,0,0,0,0,0,0,0,0,0,0,0,0,0,0,0,0,0,0,0,0,0,0,0,0,0,0,0,0,0,0,0,0,0,0,0,0,0,0,0],"sum_hessian":[1.67736E5,1.47998E5,1.9738E4,1.09294E5,3.8704E4,1.7118E4,2.62E3,5.964E4,4.9654E4,2.9035E4,9.669E3,1.2532E4,4.586E3,1.963E3,6.57E2,1.874E3,5.7766E4,3.345E4,1.6204E4,1.9844E4,9.191E3,8.652E3,1.017E3,9.641E3,2.891E3,4.219E3,3.67E2,1.793E3,1.7E2,4.86E2,1.71E2,6.28E2,1.246E3,2.6454E4,3.1312E4,2.2903E4,1.0547E4,1.4663E4,1.541E3,9.923E3,9.921E3,4.186E3,5.005E3,5.867E3,2.785E3,4.5E2,5.67E2,7.356E3,2.285E3,2.297E3,5.94E2,2.669E3,1.55E3,2.7E2,9.7E1,6.12E2,1.181E3,1.11E2,5.9E1,1.87E2,2.99E2,1.7E2,1E0,6.12E2,1.6E1,1.034E3,2.12E2,1.2716E4,1.3738E4,2.8646E4,2.666E3,1.421E4,8.693E3,4.754E3,5.793E3,8.343E3,6.32E3,1.15E3,3.91E2,6.482E3,3.441E3,5.993E3,3.928E3,1.61E2,4.025E3,2.005E3,3E3,3.003E3,2.864E3,1.578E3,1.207E3,3.3E2,1.2E2,4.55E2,1.12E2,1.96E3,5.396E3,1.028E3,1.257E3,1.278E3,1.019E3,5.15E2,7.9E1,2.06E3,6.09E2,7.86E2,7.64E2,2.4E2,3E1,8.7E1,1E1,3.85E2,2.27E2,7.35E2,4.46E2,9.4E1,1.7E1,5.1E1,8E0,1.82E2,5E0,1E0,2.98E2,1.69E2,1E0],"tree_param":{"num_deleted":"0","num_feature":"3","num_nodes":"125","size_leaf_vector":"1"}},{"base_weights":[3.2393843E-2,-6.576474E0,5.376636E1,-1.2191274E1,9.876877E0,4.242042E1,1.2192971E2,-1.7429487E1,-7.2370205E0,6.4698234E0,2.5549576E1,3.754418E1,7.661193E1,1.0076654E2,1.849123E2,1.5862389E1,-1.8216755E1,-9.888443E0,-1.8253223E0,3.259091E0,1.2681219E1,2.214375E1,4.726866E1,3.2094017E1,5.362148E1,6.615277E1,9.940942E1,9.324614E1,1.3506046E2,1.8173257E2,3.410976E2,1.806813E1,-7.451359E1,-1.959662E1,-1.3503211E1,-1.2040759E1,-8.391066E0,-2.7918448E0,1.1614077E1,7.356542E-1,8.930139E0,9.830028E0,1.665604E1,1.9537306E1,2.8640448E1,3.492141E1,5.402986E1,2.7870638E1,4.0547432E1,5.0312935E1,6.772687E1,5.9408417E1,7.857255E1,5.263838E1,1.0741614E2,8.6479706E1,1.07235535E2,1.2927994E2,2.023446E2,1.4915808E2,2.2845764E2,3.3366306E0,1.8208431E1,-7.7175775E0,-3.8530254E1,-1.9340676E0,-6.003295E0,1.2449502E1,-4.110068E0,-4.007566E0,-3.33835E0,-2.9564536E0,-2.1770337E0,-1.6596446E0,-2.9606512E-1,6.50422E0,-3.0716197E0,-8.0038273E-1,7.162548E-1,1.9737223E0,3.2692688E0,2.5839915E0,5.181031E0,3.6507304E0,5.6144648E0,4.960194E0,6.9512825E0,6.8238606E0,9.038027E0,1.4740331E1,2.0078812E0,2.0713709E1,1.2878358E1,7.781862E0,1.1547539E1,1.1536342E1,1.435781E1,1.2596408E1,1.7133549E1,2.0038084E1,7.495371E1,1.4323858E1,1.851128E1,2.1341953E1,2.5247747E1,2.3801052E1,-7.3696554E-1,2.8140537E1,3.589189E1,2.2760649E1,2.8273481E1,3.719864E1,3.1270348E1,3.5554466E1,4.2522053E1,8.2349945E1,1.0665424E1,4.1801453E1,5.482649E1,6.546954E1,1.73568E2],"categories":[],"categories_nodes":[],"categories_segments":[],"categories_sizes":[],"default_left":[0,0,0,0,0,0,0,0,0,0,0,0,0,0,0,0,0,0,0,0,0,0,0,0,0,0,0,0,0,0,0,0,0,0,0,0,0,0,0,0,0,0,0,0,0,0,0,0,0,0,0,0,0,0,0,0,0,0,0,0,0,0,0,0,0,0,0,0,0,0,0,0,0,0,0,0,0,0,0,0,0,0,0,0,0,0,0,0,0,0,0,0,0,0,0,0,0,0,0,0,0,0,0,0,0,0,0,0,0,0,0,0,0,0,0,0,0,0,0,0,0],"id":3,"left_children":[1,3,5,7,9,11,13,15,17,19,21,23,25,27,29,31,33,35,37,39,41,43,45,47,49,51,53,55,57,59,-1,61,63,65,67,69,71,73,75,77,79,81,83,85,87,89,91,93,95,97,99,101,103,105,107,109,111,113,115,117,119,-1,-1,-1,-1,-1,-1,-1,-1,-1,-1,-1,-1,-1,-1,-1,-1,-1,-1,-1,-1,-1,-1,-1,-1,-1,-1,-1,-1,-1,-1,-1,-1,-1,-1,-1,-1,-1,-1,-1,-1,-1,-1,-1,-1,-1,-1,-1,-1,-1,-1,-1,-1,-1,-1,-1,-1,-1,-1,-1,-1],"loss_changes":[5.9567236E7,1.3798984E7,1.4202536E7,2.889928E6,2.0291615E6,2.623226E6,3.474928E6,1.419014E6,8.2123E5,6.225631E5,5.009235E5,1.206352E6,4.61963E5,4.9393E5,1.785362E6,2.5072834E5,3.43672E5,1.2370075E5,2.4452045E5,2.9453275E5,1.203965E5,9.8805E4,7.48335E4,3.66564E5,1.59417E5,1.084125E5,2.25027E5,1.43504E5,1.103575E5,9.65908E5,0E0,3.6114184E5,7.561684E4,2.22741E5,1.3036325E5,1.8809E4,3.7547E4,8.68488E4,2.780627E5,8.009561E4,2.9244969E4,5.5949625E4,4.0807125E4,4.5353125E4,1.4015E4,1.3126869E5,9.5725875E4,1.399295E5,5.06355E4,1.5778E5,9.5488E4,2.0589E4,1.361225E4,1.3552227E5,7.61455E4,8.2908E4,1.333E4,2.693E4,3.0315112E5,1.03204E5,8.33205E5,0E0,0E0,0E0,0E0,0E0,0E0,0E0,0E0,0E0,0E0,0E0,0E0,0E0,0E0,0E0,0E0,0E0,0E0,0E0,0E0,0E0,0E0,0E0,0E0,0E0,0E0,0E0,0E0,0E0,0E0,0E0,0E0,0E0,0E0,0E0,0E0,0E0,0E0,0E0,0E0,0E0,0E0,0E0,0E0,0E0,0E0,0E0,0E0,0E0,0E0,0E0,0E0,0E0,0E0,0E0,0E0,0E0,0E0,0E0,0E0],"parents":[2147483647,0,0,1,1,2,2,3,3,4,4,5,5,6,6,7,7,8,8,9,9,10,10,11,11,12,12,13,13,14,14,15,15,16,16,17,17,18,18,19,19,20,20,21,21,22,22,23,23,24,24,25,25,26,26,27,27,28,28,29,29,31,31,32,32,33,33,34,34,35,35,36,36,37,37,38,38,39,39,40,40,41,41,42,42,43,43,44,44,45,45,46,46,47,47,48,48,49,49,50,50,51,51,52,52,53,53,54,54,55,55,56,56,57,57,58,58,59,59,60,60],"right_children":[2,4,6,8,10,12,14,16,18,20,22,24,26,28,30,32,34,36,38,40,42,44,46,48,50,52,54,56,58,60,-1,62,64,66,68,70,72,74,76,78,80,82,84,86,88,90,92,94,96,98,100,102,104,106,108,110,112,114,116,118,120,-1,-1,-1,-1,-1,-1,-1,-1,-1,-1,-1,-1,-1,-1,-1,-1,-1,-1,-1,-1,-1,-1,-1,-1,-1,-1,-1,-1,-1,-1,-1,-1,-1,-1,-1,-1,-1,-1,-1,-1,-1,-1,-1,-1,-1,-1,-1,-1,-1,-1,-1,-1,-1,-1,-1,-1,-1,-1,-1,-1],"split_conditions":[9.88E0,4.55E0,2.124E1,5.24E2,1.609E3,2.744E3,3.053E1,2.4E1,8.34E2,6.68E0,2.607E3,1.453E1,3.99E3,3.99E3,3.1525E2,4E0,2.19E0,2.66E0,1.541E3,1.165E3,1.186E3,2.053E3,6.98E0,1.684E3,2E0,1.635E1,1.156E1,2.737E1,2.488E4,3.99E3,3.410976E2,2E0,6E0,8.6E1,1.57E2,2.12E0,6.67E2,3.41E0,4.944E3,7.87E2,5.47E0,2E0,7.45E0,7.35E0,6.28E0,2.488E4,8.4E0,2E0,1.32E1,1.635E1,7E0,1.11E1,1.806E1,2.488E4,4.944E3,2.166E3,1.739E3,4.944E3,2.737E1,2E0,3E0,3.3366306E0,1.8208431E1,-7.7175775E0,-3.8530254E1,-1.9340676E0,-6.003295E0,1.2449502E1,-4.110068E0,-4.007566E0,-3.33835E0,-2.9564536E0,-2.1770337E0,-1.6596446E0,-2.9606512E-1,6.50422E0,-3.0716197E0,-8.0038273E-1,7.162548E-1,1.9737223E0,3.2692688E0,2.5839915E0,5.181031E0,3.6507304E0,5.6144648E0,4.960194E0,6.9512825E0,6.8238606E0,9.038027E0,1.4740331E1,2.0078812E0,2.0713709E1,1.2878358E1,7.781862E0,1.1547539E1,1.1536342E1,1.435781E1,1.2596408E1,1.7133549E1,2.0038084E1,7.495371E1,1.4323858E1,1.851128E1,2.1341953E1,2.5247747E1,2.3801052E1,-7.3696554E-1,2.8140537E1,3.589189E1,2.2760649E1,2.8273481E1,3.719864E1,3.1270348E1,3.5554466E1,4.2522053E1,8.2349945E1,1.0665424E1,4.1801453E1,5.482649E1,6.546954E1,1.73568E2],"split_indices":[1,1,1,0,0,0,1,0,0,1,0,1,0,0,1,2,1,1,0,0,0,0,1,0,2,1,1,1,0,0,0,2,0,0,0,1,0,1,0,0,1,2,1,1,1,0,1,2,1,1,2,1,1,0,0,0,0,0,1,2,2,0,0,0,0,0,0,0,0,0,0,0,0,0,0,0,0,0,0,0,0,0,0,0,0,0,0,0,0,0,0,0,0,0,0,0,0,0,0,0,0,0,0,0,0,0,0,0,0,0,0,0,0,0,0,0,0,0,0,0,0],"split_type":[0,0,0,0,0,0,0,0,0,0,0,0,0,0,0,0,0,0,0,0,0,0,0,0,0,0,0,0,0,0,0,0,0,0,0,0,0,0,0,0,0,0,0,0,0,0,0,0,0,0,0,0,0,0,0,0,0,0,0,0,0,0,0,0,0,0,0,0,0,0,0,0,0,0,0,0,0,0,0,0,0,0,0,0,0,0,0,0,0,0,0,0,0,0,0,0,0,0,0,0,0,0,0,0,0,0,0,0,0,0,0,0,0,0,0,0,0,0,0,0,0],"sum_hessian":[1.67736E5,1.49366E5,1.837E4,1.11363E5,3.8003E4,1.575E4,2.62E3,5.4129E4,5.7234E4,3.1218E4,6.785E3,1.3786E4,1.964E3,1.963E3,6.57E2,1.25E3,5.2879E4,3.8413E4,1.8821E4,2.0581E4,1.0637E4,5.867E3,9.18E2,1.0298E4,3.488E3,1.349E3,6.15E2,1.613E3,3.5E2,6.56E2,1E0,1.221E3,2.9E1,4.0902E4,1.1977E4,1.5757E4,2.2656E4,1.7559E4,1.262E3,1.4244E4,6.337E3,6.196E3,4.441E3,4.19E3,1.677E3,3.27E2,5.91E2,6.87E3,3.428E3,2.829E3,6.59E2,8.78E2,4.71E2,9.1E1,5.24E2,1.092E3,5.21E2,3.25E2,2.5E1,3.89E2,2.67E2,1.051E3,1.7E2,1.6E1,1.3E1,1.25E3,3.9652E4,4.2E1,1.1935E4,6.443E3,9.314E3,9.888E3,1.2768E4,6.972E3,1.0587E4,8.64E2,3.98E2,4.654E3,9.59E3,2.889E3,3.448E3,5.327E3,8.69E2,1.399E3,3.042E3,2.297E3,1.893E3,3.41E2,1.336E3,2.17E2,1.1E2,2.49E2,3.42E2,5.816E3,1.054E3,2.67E3,7.58E2,1.275E3,1.554E3,6.57E2,2E0,1.48E2,7.3E2,2.08E2,2.63E2,6.1E1,3E1,2.52E2,2.72E2,4.66E2,6.26E2,7.3E1,4.48E2,1.8E2,1.45E2,1.7E1,8E0,3.05E2,8.4E1,2.61E2,6E0],"tree_param":{"num_deleted":"0","num_feature":"3","num_nodes":"121","size_leaf_vector":"1"}},{"base_weights":[3.0836495E-2,-5.1619425E0,3.3864285E1,-9.838111E0,3.1417239E0,2.5057838E1,7.507717E1,-1.2777064E1,-6.806985E0,2.0246308E-2,1.1568456E1,2.0077877E1,3.703148E1,6.39153E1,1.3046712E2,2.3038792E1,-1.3258629E1,-7.4710503E0,-6.578363E-1,-1.6149229E0,5.291953E0,9.579461E0,2.6103273E1,1.6860188E1,2.9110008E1,3.355602E1,5.7036484E1,5.8613686E1,9.205327E1,1.2772371E2,2.8993295E2,1.9210878E1,5.4746563E1,-1.9835047E0,-1.3666693E1,-8.292513E0,-5.680946E0,-2.0188458E0,6.4594336E0,-3.681905E0,5.2996695E-1,3.194862E1,4.8482785E0,4.564574E0,1.13512E1,2.0842615E1,3.417096E1,1.1608838E1,1.90444E1,6.266786E1,2.8890453E1,2.7107857E1,3.866679E1,4.1325535E1,6.3248363E1,5.1394478E1,7.045763E1,8.172618E1,1.0234335E2,1.0961764E2,1.7854202E2,-1.8030901E1,6.1838765E0,4.501789E1,-2.8067598E0,-2.6372132E-1,-1.8866238E1,-4.9709435E0,-3.5610576E0,-2.793213E0,-2.2911394E0,1.3081561E1,-1.7155299E0,9.410883E0,-6.457187E-1,6.655153E0,-3.0832822E0,-1.2758403E0,3.332735E-2,-2.0038763E-1,6.532944E-1,6.5401363E0,1.960009E1,-3.5391545E-1,1.7490412E0,1.2274127E0,2.4930959E0,2.9915247E0,4.5037875E0,-5.7144456E0,6.3164883E0,1.3211484E1,3.5984893E0,3.0427956E1,3.4239194E0,4.6099057E0,6.498033E0,8.182029E0,1.0883285E1,7.133121E0,8.983905E0,1.0878996E1,1.3113885E1,2.4296362E1,9.595299E0,1.6449774E1,2.397702E1,1.4314268E1,1.7972403E1,1.9669647E1,2.2558811E1,2.1357061E1,4.064115E1,3.1369482E1,6.2043724E0,1.2122385E2,3.2271065E1,5.1627552E1,1.9126125E2],"categories":[],"categories_nodes":[],"categories_segments":[],"categories_sizes":[],"default_left":[0,0,0,0,0,0,0,0,0,0,0,0,0,0,0,0,0,0,0,0,0,0,0,0,0,0,0,0,0,0,0,0,0,0,0,0,0,0,0,0,0,0,0,0,0,0,0,0,0,0,0,0,0,0,0,0,0,0,0,0,0,0,0,0,0,0,0,0,0,0,0,0,0,0,0,0,0,0,0,0,0,0,0,0,0,0,0,0,0,0,0,0,0,0,0,0,0,0,0,0,0,0,0,0,0,0,0,0,0,0,0,0,0,0,0,0,0,0,0],"id":4,"left_children":[1,3,5,7,9,11,13,15,17,19,21,23,25,27,29,31,33,35,37,39,41,43,45,47,49,51,53,55,57,59,-1,61,63,65,67,69,71,73,75,77,79,81,83,85,87,89,91,93,95,-1,97,99,101,103,105,107,109,111,113,115,117,-1,-1,-1,-1,-1,-1,-1,-1,-1,-1,-1,-1,-1,-1,-1,-1,-1,-1,-1,-1,-1,-1,-1,-1,-1,-1,-1,-1,-1,-1,-1,-1,-1,-1,-1,-1,-1,-1,-1,-1,-1,-1,-1,-1,-1,-1,-1,-1,-1,-1,-1,-1,-1,-1,-1,-1,-1,-1],"loss_changes":[2.9469822E7,5.646555E6,8.098554E6,8.28656E5,1.3780586E6,1.09588E6,2.420788E6,8.14945E5,1.870125E5,3.2955622E5,4.0913975E5,3.77061E5,3.735995E5,4.82712E5,1.385634E6,7.505016E4,2.14406E5,6.0736E4,4.3264027E4,1.29369984E5,1.06890234E5,1.10638375E5,7.1607875E4,1.096735E5,1.2860475E5,1.50677E5,7.52665E4,2.32027E5,4.6576E4,5.84948E5,0E0,6.3622938E4,4.1076047E5,1.0951838E5,2.34384E5,1.8834375E4,2.427725E4,1.6784375E4,1.8892808E5,3.2178422E4,2.8268232E4,4.871761E4,5.2706453E4,5.7336484E3,4.6342625E4,9.159625E3,1.4629838E5,4.8376312E4,6.475125E4,0E0,3.971975E4,1.85655E4,2.9536E4,8.225281E4,7.5608E4,5.09075E4,1.9201E4,1.3927938E5,4.409975E4,2.501405E5,3.965495E5,0E0,0E0,0E0,0E0,0E0,0E0,0E0,0E0,0E0,0E0,0E0,0E0,0E0,0E0,0E0,0E0,0E0,0E0,0E0,0E0,0E0,0E0,0E0,0E0,0E0,0E0,0E0,0E0,0E0,0E0,0E0,0E0,0E0,0E0,0E0,0E0,0E0,0E0,0E0,0E0,0E0,0E0,0E0,0E0,0E0,0E0,0E0,0E0,0E0,0E0,0E0,0E0,0E0,0E0,0E0,0E0,0E0,0E0],"parents":[2147483647,0,0,1,1,2,2,3,3,4,4,5,5,6,6,7,7,8,8,9,9,10,10,11,11,12,12,13,13,14,14,15,15,16,16,17,17,18,18,19,19,20,20,21,21,22,22,23,23,24,24,25,25,26,26,27,27,28,28,29,29,31,31,32,32,33,33,34,34,35,35,36,36,37,37,38,38,39,39,40,40,41,41,42,42,43,43,44,44,45,45,46,46,47,47,48,48,50,50,51,51,52,52,53,53,54,54,55,55,56,56,57,57,58,58,59,59,60,60],"right_children":[2,4,6,8,10,12,14,16,18,20,22,24,26,28,30,32,34,36,38,40,42,44,46,48,50,52,54,56,58,60,-1,62,64,66,68,70,72,74,76,78,80,82,84,86,88,90,92,94,96,-1,98,100,102,104,106,108,110,112,114,116,118,-1,-1,-1,-1,-1,-1,-1,-1,-1,-1,-1,-1,-1,-1,-1,-1,-1,-1,-1,-1,-1,-1,-1,-1,-1,-1,-1,-1,-1,-1,-1,-1,-1,-1,-1,-1,-1,-1,-1,-1,-1,-1,-1,-1,-1,-1,-1,-1,-1,-1,-1,-1,-1,-1,-1,-1,-1,-1],"split_conditions":[8.85E0,3.59E0,1.806E1,4.85E2,1.256E3,1.912E3,3.053E1,6E0,9.69E2,6E0,2.166E3,1.287E1,3.491E3,3.99E3,3.1525E2,5.3E-1,3.1E-1,7.11E2,1.521E3,8.74E2,4.58E2,5.23E0,2.744E3,1.079E3,6E0,1.205E1,1.156E1,2.351E1,4.944E3,4.944E3,2.8993295E2,1E0,9.7E-1,6E0,3.03E2,2.3E0,8E-2,1E0,3.99E3,2E0,4.78E0,2E0,6.76E2,1.739E3,1.71E3,1E0,2.488E4,6E0,1.03E1,6.266786E1,2E0,1.03E1,1.561E1,9.33E0,4.944E3,2.607E3,2.737E1,2E0,3E0,1E0,4E0,-1.8030901E1,6.1838765E0,4.501789E1,-2.8067598E0,-2.6372132E-1,-1.8866238E1,-4.9709435E0,-3.5610576E0,-2.793213E0,-2.2911394E0,1.3081561E1,-1.7155299E0,9.410883E0,-6.457187E-1,6.655153E0,-3.0832822E0,-1.2758403E0,3.332735E-2,-2.0038763E-1,6.532944E-1,6.5401363E0,1.960009E1,-3.5391545E-1,1.7490412E0,1.2274127E0,2.4930959E0,2.9915247E0,4.5037875E0,-5.7144456E0,6.3164883E0,1.3211484E1,3.5984893E0,3.0427956E1,3.4239194E0,4.6099057E0,6.498033E0,8.182029E0,1.0883285E1,7.133121E0,8.983905E0,1.0878996E1,1.3113885E1,2.4296362E1,9.595299E0,1.6449774E1,2.397702E1,1.4314268E1,1.7972403E1,1.9669647E1,2.2558811E1,2.1357061E1,4.064115E1,3.1369482E1,6.2043724E0,1.2122385E2,3.2271065E1,5.1627552E1,1.9126125E2],"split_indices":[1,1,1,0,0,0,1,0,0,1,0,1,0,0,1,1,1,0,0,0,0,1,0,0,0,1,1,1,0,0,0,2,1,2,0,1,1,2,0,2,1,2,0,0,0,2,0,0,1,0,2,1,1,1,0,0,1,2,2,2,2,0,0,0,0,0,0,0,0,0,0,0,0,0,0,0,0,0,0,0,0,0,0,0,0,0,0,0,0,0,0,0,0,0,0,0,0,0,0,0,0,0,0,0,0,0,0,0,0,0,0,0,0,0,0,0,0,0,0],"split_type":[0,0,0,0,0,0,0,0,0,0,0,0,0,0,0,0,0,0,0,0,0,0,0,0,0,0,0,0,0,0,0,0,0,0,0,0,0,0,0,0,0,0,0,0,0,0,0,0,0,0,0,0,0,0,0,0,0,0,0,0,0,0,0,0,0,0,0,0,0,0,0,0,0,0,0,0,0,0,0,0,0,0,0,0,0,0,0,0,0,0,0,0,0,0,0,0,0,0,0,0,0,0,0,0,0,0,0,0,0,0,0,0,0,0,0,0,0,0,0],"sum_hessian":[1.67736E5,1.45418E5,2.2318E4,9.3029E4,5.2389E4,1.839E4,3.928E3,4.7231E4,4.5798E4,3.8229E4,1.416E4,1.299E4,5.4E3,3.271E3,6.57E2,6.26E2,4.6605E4,4.1334E4,4.464E3,2.9179E4,9.05E3,1.2457E4,1.703E3,9.58E3,3.41E3,4.603E3,7.97E2,2.755E3,5.16E2,6.56E2,1E0,5.6E2,6.6E1,1.628E3,4.4977E4,2.833E4,1.3004E4,3.748E3,7.16E2,1.4859E4,1.432E4,1.47E2,8.903E3,3.253E3,9.204E3,1.033E3,6.7E2,2.816E3,6.764E3,3E0,3.407E3,2.038E3,2.565E3,2.28E2,5.69E2,1.715E3,1.04E3,2.62E2,2.54E2,4.86E2,1.7E2,9E0,5.51E2,2.6E1,4E1,1.6E3,2.8E1,1.719E4,2.7787E4,1.1089E4,1.7241E4,9E0,1.2995E4,1.4E1,3.734E3,3.69E2,3.47E2,1.2915E4,1.944E3,8.292E3,6.028E3,1.14E2,3.3E1,1.247E3,7.656E3,2.89E3,3.63E2,6.688E3,2.516E3,5E0,1.028E3,4.63E2,2.07E2,5E0,2.811E3,2.814E3,3.95E3,2.799E3,6.08E2,9.42E2,1.096E3,1.743E3,8.22E2,4.2E1,1.86E2,3.81E2,1.88E2,1.202E3,5.13E2,5.19E2,5.21E2,2.21E2,4.1E1,2.47E2,7E0,2E0,4.84E2,1.69E2,1E0],"tree_param":{"num_deleted":"0","num_feature":"3","num_nodes":"119","size_leaf_vector":"1"}},{"base_weights":[2.8609682E-2,-4.0485106E0,2.143072E1,-7.2561646E0,9.601728E-1,1.6572113E1,5.6265644E1,1.6211506E1,-7.4275413E0,-1.0234158E0,6.4123397E0,1.3492162E1,2.8176561E1,5.5782486E1,2.4644301E2,1.3034063E1,5.0851616E1,-9.611764E0,-5.2970843E0,-2.3387702E0,1.0941539E0,5.2069397E0,1.6042011E1,1.0173132E1,1.922699E1,2.5368689E1,4.713838E1,4.7204403E1,9.000992E1,1.3879395E1,-2.5680712E1,1.848701E2,-8.476687E0,-1.1992589E0,-1.0003845E1,-5.9768677E0,-2.912142E0,2.6216492E1,-2.4030907E0,3.519226E-1,5.4819903E0,2.9632747E0,6.8877864E0,1.8824667E1,-1.997789E0,1.2043612E2,1.0116156E1,1.6864252E1,2.544064E1,1.9158108E1,2.9545897E1,1.748268E2,4.2494015E1,4.328505E1,6.670235E1,8.633487E1,3.1915182E2,-1.3162558E1,4.466323E0,1.0287023E2,3.6607353E1,7.7639933E0,-9.154397E0,-1.6006861E0,5.353179E0,-3.8298821E0,-2.5887752E0,-2.0425925E0,-1.6761767E0,4.9362106E0,-9.1386306E-1,2.3326697E0,7.920139E1,-1.0219493E0,-2.7879578E-1,-1.3794095E1,1.572757E-1,4.8064125E1,1.4981482E0,8.2125795E-1,1.7290058E0,1.700201E0,2.7399123E0,4.3155937E0,1.1486811E1,1.1379299E0,-1.7033466E1,-1.523369E-1,4.341794E1,-1.4265124E1,3.069874E0,2.7017382E1,5.018239E0,6.9498544E0,1.0633326E1,5.25799E0,7.060204E0,8.832075E0,4.5175205E1,8.014362E0,1.4651816E2,-6.228585E0,1.4043905E1,1.1325676E1,1.4808272E1,1.9275269E1,2.9370121E1,1.7788567E1,2.9152386E1,2.3900524E1,1.9753796E2],"categories":[],"categories_nodes":[],"categories_segments":[],"categories_sizes":[],"default_left":[0,0,0,0,0,0,0,0,0,0,0,0,0,0,0,0,0,0,0,0,0,0,0,0,0,0,0,0,0,0,0,0,0,0,0,0,0,0,0,0,0,0,0,0,0,0,0,0,0,0,0,0,0,0,0,0,0,0,0,0,0,0,0,0,0,0,0,0,0,0,0,0,0,0,0,0,0,0,0,0,0,0,0,0,0,0,0,0,0,0,0,0,0,0,0,0,0,0,0,0,0,0,0,0,0,0,0,0,0,0,0],"id":5,"left_children":[1,3,5,7,9,11,13,15,17,19,21,23,25,27,-1,29,31,33,35,37,39,41,43,45,47,49,51,53,55,57,-1,59,61,63,65,67,69,71,73,75,77,79,81,83,85,87,89,91,93,95,97,99,101,103,105,107,109,-1,-1,-1,-1,-1,-1,-1,-1,-1,-1,-1,-1,-1,-1,-1,-1,-1,-1,-1,-1,-1,-1,-1,-1,-1,-1,-1,-1,-1,-1,-1,-1,-1,-1,-1,-1,-1,-1,-1,-1,-1,-1,-1,-1,-1,-1,-1,-1,-1,-1,-1,-1,-1,-1],"loss_changes":[1.4636645E7,2.2636755E6,4.541883E6,3.455575E5,5.948994E5,8.415735E5,1.168697E6,6.790891E4,3.96739E5,1.1234704E5,1.7024656E5,3.541805E5,2.6182125E5,9.59952E5,0E0,4.8881742E4,4.1502375E5,1.3885675E5,6.99685E4,4.5759797E4,5.033175E4,4.9168094E4,8.1961625E4,7.288225E4,9.975575E4,1.111185E5,3.6973888E5,1.979425E5,5.2571E5,3.373165E4,0E0,1.1706219E5,2.8804309E4,1.478668E5,1.526405E5,1.0848E4,2.491571E4,2.4350911E5,3.6707844E4,1.0557821E5,1.680948E5,3.5164688E3,2.0379312E4,1.2163397E5,6.968816E4,1.7700102E4,7.98685E4,4.8023875E4,4.1909375E4,1.19668125E4,2.8456E4,1.00870144E6,1.6899162E5,7.17905E4,2.720825E4,1.841685E5,7.60128E5,0E0,0E0,0E0,0E0,0E0,0E0,0E0,0E0,0E0,0E0,0E0,0E0,0E0,0E0,0E0,0E0,0E0,0E0,0E0,0E0,0E0,0E0,0E0,0E0,0E0,0E0,0E0,0E0,0E0,0E0,0E0,0E0,0E0,0E0,0E0,0E0,0E0,0E0,0E0,0E0,0E0,0E0,0E0,0E0,0E0,0E0,0E0,0E0,0E0,0E0,0E0,0E0,0E0,0E0],"parents":[2147483647,0,0,1,1,2,2,3,3,4,4,5,5,6,6,7,7,8,8,9,9,10,10,11,11,12,12,13,13,15,15,16,16,17,17,18,18,19,19,20,20,21,21,22,22,23,23,24,24,25,25,26,26,27,27,28,28,29,29,31,31,32,32,33,33,34,34,35,35,36,36,37,37,38,38,39,39,40,40,41,41,42,42,43,43,44,44,45,45,46,46,47,47,48,48,49,49,50,50,51,51,52,52,53,53,54,54,55,55,56,56],"right_children":[2,4,6,8,10,12,14,16,18,20,22,24,26,28,-1,30,32,34,36,38,40,42,44,46,48,50,52,54,56,58,-1,60,62,64,66,68,70,72,74,76,78,80,82,84,86,88,90,92,94,96,98,100,102,104,106,108,110,-1,-1,-1,-1,-1,-1,-1,-1,-1,-1,-1,-1,-1,-1,-1,-1,-1,-1,-1,-1,-1,-1,-1,-1,-1,-1,-1,-1,-1,-1,-1,-1,-1,-1,-1,-1,-1,-1,-1,-1,-1,-1,-1,-1,-1,-1,-1,-1,-1,-1,-1,-1,-1,-1],"split_conditions":[7.85E0,3.28E0,1.947E1,6E0,1.186E3,2.104E3,3.1525E2,6.6E-1,4.58E2,4.73E0,2.053E3,1.156E1,3.99E3,3.053E1,2.4644301E2,6.1E-1,9.7E-1,8.6E1,7.67E2,2.4E2,2E0,5.47E0,2.488E4,6E0,1.503E1,1.156E1,8.4E0,3.99E3,2.488E4,1E0,-2.5680712E1,7.2E-1,1.35E0,2E0,1.26E0,2.12E0,3.1E-1,2.27E2,8.51E2,2.2E2,2.4E1,1.739E3,1.563E3,2.928E3,6.98E0,8.26E0,2.84E2,2.4E1,2E0,2.744E3,7E0,2.488E4,9.17E0,2.351E1,2.488E4,2.744E3,2E0,-1.3162558E1,4.466323E0,1.0287023E2,3.6607353E1,7.7639933E0,-9.154397E0,-1.6006861E0,5.353179E0,-3.8298821E0,-2.5887752E0,-2.0425925E0,-1.6761767E0,4.9362106E0,-9.1386306E-1,2.3326697E0,7.920139E1,-1.0219493E0,-2.7879578E-1,-1.3794095E1,1.572757E-1,4.8064125E1,1.4981482E0,8.2125795E-1,1.7290058E0,1.700201E0,2.7399123E0,4.3155937E0,1.1486811E1,1.1379299E0,-1.7033466E1,-1.523369E-1,4.341794E1,-1.4265124E1,3.069874E0,2.7017382E1,5.018239E0,6.9498544E0,1.0633326E1,5.25799E0,7.060204E0,8.832075E0,4.5175205E1,8.014362E0,1.4651816E2,-6.228585E0,1.4043905E1,1.1325676E1,1.4808272E1,1.9275269E1,2.9370121E1,1.7788567E1,2.9152386E1,2.3900524E1,1.9753796E2],"split_indices":[1,1,1,0,0,0,1,1,0,1,0,1,0,1,0,1,1,0,0,0,2,1,0,0,1,1,1,0,0,2,0,1,1,2,1,1,1,0,0,0,0,0,0,0,1,1,0,0,2,0,2,0,1,1,0,0,2,0,0,0,0,0,0,0,0,0,0,0,0,0,0,0,0,0,0,0,0,0,0,0,0,0,0,0,0,0,0,0,0,0,0,0,0,0,0,0,0,0,0,0,0,0,0,0,0,0,0,0,0,0,0],"split_type":[0,0,0,0,0,0,0,0,0,0,0,0,0,0,0,0,0,0,0,0,0,0,0,0,0,0,0,0,0,0,0,0,0,0,0,0,0,0,0,0,0,0,0,0,0,0,0,0,0,0,0,0,0,0,0,0,0,0,0,0,0,0,0,0,0,0,0,0,0,0,0,0,0,0,0,0,0,0,0,0,0,0,0,0,0,0,0,0,0,0,0,0,0,0,0,0,0,0,0,0,0,0,0,0,0,0,0,0,0,0,0],"sum_hessian":[1.67736E5,1.40896E5,2.684E4,8.589E4,5.5006E4,2.3556E4,3.284E3,6.22E2,8.5268E4,4.0333E4,1.4673E4,1.8617E4,4.939E3,3.283E3,1E0,5.71E2,5.1E1,4.2101E4,4.3167E4,2.4879E4,1.5454E4,1.3042E4,1.631E3,1.1794E4,6.823E3,4.304E3,6.35E2,2.627E3,6.56E2,5.67E2,4E0,1.5E1,3.6E1,1.875E3,4.0226E4,3.3591E4,9.576E3,5.5E1,2.4824E4,1.3219E4,2.235E3,5.587E3,7.455E3,1.413E3,2.18E2,5E0,1.1789E4,4.946E3,1.877E3,1.733E3,2.571E3,2.1E1,6.14E2,2.19E3,4.37E2,6.47E2,9E0,9E0,5.58E2,3E0,1.2E1,1.4E1,2.2E1,1.541E3,3.34E2,1.3363E4,2.6863E4,1.071E4,2.2881E4,6.5E1,9.511E3,5.2E1,3E0,1.4768E4,1.0056E4,4.8E1,1.3171E4,6E0,2.229E3,5.172E3,4.15E2,4.832E3,2.623E3,1.152E3,2.61E2,1.98E2,2E1,1E0,4E0,2.3E1,1.1766E4,8E0,4.938E3,1.532E3,3.45E2,1.266E3,4.67E2,2.57E3,1E0,1.5E1,6E0,3.9E1,5.75E2,1.15E3,1.04E3,4.08E2,2.9E1,1.87E2,4.6E2,6E0,3E0],"tree_param":{"num_deleted":"0","num_feature":"3","num_nodes":"111","size_leaf_vector":"1"}},{"base_weights":[2.6730664E-2,-2.1386092E0,2.003266E1,-4.4173694E0,3.2028959E0,1.566651E1,4.2950226E1,-5.850902E0,-2.2124908E0,8.451322E-1,6.6540837E0,1.3691654E1,2.839093E1,4.2433598E1,2.0947655E2,6.7076397E0,-6.0923004E0,-2.6199718E0,1.2563757E0,3.736955E-1,6.8352146E0,5.258251E0,1.1522015E1,8.880195E0,1.6022831E1,2.4880535E1,3.6080414E1,3.7466366E1,7.552115E1,-7.741519E0,1.7130213E1,-7.7046294E0,-4.8921804E0,2.2013938E0,-2.7455251E0,1.605364E1,5.3598005E-1,-7.211398E-1,1.7331004E0,1.0407972E1,-3.8606431E0,4.6421413E0,8.733715E0,1.0758749E1,2.3414398E1,9.724605E1,8.695899E0,1.4735766E1,2.3127922E1,2.1199778E1,2.8282946E1,4.1246487E1,6.9047604E0,3.341371E1,5.2318523E1,7.298945E1,2.7056955E2,-1.4541653E0,-2.1477148E1,6.365738E0,-1.655981E1,5.69807E-1,-2.3692834E0,3.0982714E0,-1.4859928E0,5.2532777E-2,5.2082343E0,-1.1383799E0,-5.9854007E-1,-5.478657E0,7.7641573E0,2.8751698E-1,-1.9271089E0,1.8597824E1,-2.2450337E-1,2.7045962E-1,7.874817E-1,1.7988197E0,9.194926E0,1.32275715E1,-1.6383063E0,1.1453998E0,1.9255598E0,3.296768E0,8.514242E-1,3.026923E0,4.619622E0,1.0785752E1,-1.0635921E0,1.2197761E1,5.340132E1,-1.6584919E1,2.6824899E0,4.061513E0,6.2535434E0,5.459415E1,6.855112E0,6.9052715E0,5.775608E0,8.033609E0,1.0290682E1,1.8205172E1,1.0059264E1,-9.676331E0,4.0013153E1,9.125562E0,1.1774943E1,9.228499E1,1.5189447E1,2.5058123E1,3.6155195E0,2.7616916E0,1.5819919E2],"categories":[],"categories_nodes":[],"categories_segments":[],"categories_sizes":[],"default_left":[0,0,0,0,0,0,0,0,0,0,0,0,0,0,0,0,0,0,0,0,0,0,0,0,0,0,0,0,0,0,0,0,0,0,0,0,0,0,0,0,0,0,0,0,0,0,0,0,0,0,0,0,0,0,0,0,0,0,0,0,0,0,0,0,0,0,0,0,0,0,0,0,0,0,0,0,0,0,0,0,0,0,0,0,0,0,0,0,0,0,0,0,0,0,0,0,0,0,0,0,0,0,0,0,0,0,0,0,0,0,0,0,0],"id":6,"left_children":[1,3,5,7,9,11,13,15,17,19,21,23,25,27,-1,29,31,33,35,37,39,41,43,45,47,49,51,53,55,57,59,61,63,65,67,69,71,73,75,77,79,81,83,85,87,89,91,93,95,97,99,101,103,105,107,109,111,-1,-1,-1,-1,-1,-1,-1,-1,-1,-1,-1,-1,-1,-1,-1,-1,-1,-1,-1,-1,-1,-1,-1,-1,-1,-1,-1,-1,-1,-1,-1,-1,-1,-1,-1,-1,-1,-1,-1,-1,-1,-1,-1,-1,-1,-1,-1,-1,-1,-1,-1,-1,-1,-1,-1,-1],"loss_changes":[7.266348E6,1.8423208E6,1.638536E6,3.3532825E5,3.682952E5,3.4543475E5,8.577035E5,1.949525E5,5.909167E4,7.593895E4,1.24767E5,1.3350075E5,4.8985625E4,4.27777E5,0E0,1.8280728E5,1.2202325E5,2.2651156E4,4.6841582E4,3.7106664E4,7.5015484E4,3.0534625E4,3.6900438E4,6.252125E4,7.3045375E4,1.533025E4,8.668269E4,1.3548675E5,1.4863838E5,9.371525E4,2.0967456E5,4.9901E4,3.3698562E4,2.9178332E4,2.8694375E4,6.926503E4,1.2329949E4,2.3607887E4,8.245984E3,1.3118367E5,3.7997938E4,1.7735281E4,2.85455E4,1.1789531E4,8.32813E4,2.9321367E4,6.1557688E4,4.9440125E4,5.0028E4,1.7343438E3,5.0393125E3,7.145125E4,4.4012703E5,3.0165375E4,1.9417438E5,2.1603625E5,2.6357794E5,0E0,0E0,0E0,0E0,0E0,0E0,0E0,0E0,0E0,0E0,0E0,0E0,0E0,0E0,0E0,0E0,0E0,0E0,0E0,0E0,0E0,0E0,0E0,0E0,0E0,0E0,0E0,0E0,0E0,0E0,0E0,0E0,0E0,0E0,0E0,0E0,0E0,0E0,0E0,0E0,0E0,0E0,0E0,0E0,0E0,0E0,0E0,0E0,0E0,0E0,0E0,0E0,0E0,0E0,0E0,0E0],"parents":[2147483647,0,0,1,1,2,2,3,3,4,4,5,5,6,6,7,7,8,8,9,9,10,10,11,11,12,12,13,13,15,15,16,16,17,17,18,18,19,19,20,20,21,21,22,22,23,23,24,24,25,25,26,26,27,27,28,28,29,29,30,30,31,31,32,32,33,33,34,34,35,35,36,36,37,37,38,38,39,39,40,40,41,41,42,42,43,43,44,44,45,45,46,46,47,47,48,48,49,49,50,50,51,51,52,52,53,53,54,54,55,55,56,56],"right_children":[2,4,6,8,10,12,14,16,18,20,22,24,26,28,-1,30,32,34,36,38,40,42,44,46,48,50,52,54,56,58,60,62,64,66,68,70,72,74,76,78,80,82,84,86,88,90,92,94,96,98,100,102,104,106,108,110,112,-1,-1,-1,-1,-1,-1,-1,-1,-1,-1,-1,-1,-1,-1,-1,-1,-1,-1,-1,-1,-1,-1,-1,-1,-1,-1,-1,-1,-1,-1,-1,-1,-1,-1,-1,-1,-1,-1,-1,-1,-1,-1,-1,-1,-1,-1,-1,-1,-1,-1,-1,-1,-1,-1,-1,-1],"split_conditions":[1.053E1,8.85E2,2.124E1,2.61E0,6E0,2.744E3,3.1525E2,2.4E1,6.08E0,1.71E3,1.802E3,1.323E3,3.99E3,4.944E3,2.0947655E2,8E-2,3.67E2,3.9E2,4.78E2,1.097E3,4.944E3,2E0,3.99E3,6E0,1.714E1,1.503E1,2.488E4,3.053E1,4E0,3E0,1.43E0,1.6E-1,5.3E-1,2E0,6.54E2,2.51E2,5E0,8E-2,4.78E0,2.489E3,3.1E-1,1.429E3,5E0,9.88E0,9.33E0,2E0,8.6E1,2E0,1E0,3.154E3,2E0,1.4E1,2E0,2.928E3,1E0,2E0,3.053E1,-1.4541653E0,-2.1477148E1,6.365738E0,-1.655981E1,5.69807E-1,-2.3692834E0,3.0982714E0,-1.4859928E0,5.2532777E-2,5.2082343E0,-1.1383799E0,-5.9854007E-1,-5.478657E0,7.7641573E0,2.8751698E-1,-1.9271089E0,1.8597824E1,-2.2450337E-1,2.7045962E-1,7.874817E-1,1.7988197E0,9.194926E0,1.32275715E1,-1.6383063E0,1.1453998E0,1.9255598E0,3.296768E0,8.514242E-1,3.026923E0,4.619622E0,1.0785752E1,-1.0635921E0,1.2197761E1,5.340132E1,-1.6584919E1,2.6824899E0,4.061513E0,6.2535434E0,5.459415E1,6.855112E0,6.9052715E0,5.775608E0,8.033609E0,1.0290682E1,1.8205172E1,1.0059264E1,-9.676331E0,4.0013153E1,9.125562E0,1.1774943E1,9.228499E1,1.5189447E1,2.5058123E1,3.6155195E0,2.7616916E0,1.5819919E2],"split_indices":[1,0,1,1,1,0,1,0,1,0,0,0,0,0,0,1,0,0,0,0,0,2,0,0,1,1,0,1,2,2,1,1,1,2,0,0,2,1,1,0,1,0,2,1,1,2,0,2,2,0,2,1,2,0,2,2,1,0,0,0,0,0,0,0,0,0,0,0,0,0,0,0,0,0,0,0,0,0,0,0,0,0,0,0,0,0,0,0,0,0,0,0,0,0,0,0,0,0,0,0,0,0,0,0,0,0,0,0,0,0,0,0,0],"split_type":[0,0,0,0,0,0,0,0,0,0,0,0,0,0,0,0,0,0,0,0,0,0,0,0,0,0,0,0,0,0,0,0,0,0,0,0,0,0,0,0,0,0,0,0,0,0,0,0,0,0,0,0,0,0,0,0,0,0,0,0,0,0,0,0,0,0,0,0,0,0,0,0,0,0,0,0,0,0,0,0,0,0,0,0,0,0,0,0,0,0,0,0,0,0,0,0,0,0,0,0,0,0,0,0,0,0,0,0,0,0,0,0,0],"sum_hessian":[1.67736E5,1.51355E5,1.6381E4,1.06094E5,4.5261E4,1.3761E4,2.62E3,6.4292E4,4.1802E4,2.6891E4,1.837E4,1.1914E4,1.847E3,2.619E3,1E0,1.212E3,6.308E4,3.7408E4,4.394E3,2.493E4,1.961E3,1.4278E4,4.092E3,3.89E3,8.024E3,1.271E3,5.76E2,2.279E3,3.4E2,5.08E2,7.04E2,2.6915E4,3.6165E4,9.49E2,3.6459E4,2.03E2,4.191E3,1.3809E4,1.1121E4,1.47E3,4.91E2,1.213E4,2.148E3,3.847E3,2.45E2,7E0,3.883E3,6.796E3,1.228E3,6.14E2,6.57E2,4.89E2,8.7E1,1.793E3,4.86E2,3.37E2,3E0,4.87E2,2.1E1,6.67E2,3.7E1,5.3E2,2.6385E4,1.44E2,3.6021E4,8.38E2,1.11E2,1.5202E4,2.1257E4,4.5E1,1.58E2,3.952E3,2.39E2,5E0,1.3804E4,5.756E3,5.365E3,1.208E3,2.62E2,1.5E1,4.76E2,8.288E3,3.842E3,1.553E3,5.95E2,3.365E3,4.82E2,1.67E2,7.8E1,5E0,2E0,1.4E1,3.869E3,5.685E3,1.111E3,1E0,1.227E3,3.12E2,3.02E2,5.3E2,1.27E2,1.37E2,3.52E2,6.7E1,2E1,1.189E3,6.04E2,2E0,4.84E2,2.87E2,5E1,2E0,1E0],"tree_param":{"num_deleted":"0","num_feature":"3","num_nodes":"113","size_leaf_vector":"1"}},{"base_weights":[2.3350084E-2,-2.1062057E0,1.0265042E1,-3.7873375E0,9.099702E-2,7.227136E0,2.3968742E1,9.242295E0,-3.890957E0,-6.616838E-1,3.091736E0,5.5504723E0,1.1605496E1,2.37467E1,1.7805505E2,6.572674E0,3.9597923E1,-5.8351045E0,-3.3283982E0,-1.7593111E0,1.0937342E-1,2.6437683E0,9.450791E0,4.720445E0,1.012141E1,9.913978E0,1.8185768E1,2.0540047E1,4.6074154E1,1.3292885E1,-7.1158633E0,7.829213E1,1.9914917E1,-1.8967727E-1,-6.508258E0,1.3436723E1,-3.38977E0,-1.934999E1,-1.6800289E0,-6.631582E-1,1.1897678E0,2.1605265E0,4.239061E0,2.584679E1,5.3046327E0,2.707664E0,6.873359E0,1.1644621E2,9.465984E0,9.86792E0,3.7460896E1,4.256626E1,1.6073334E1,1.6858025E1,2.6047863E1,4.3173477E1,2.294306E2,1.9538567E0,8.088546E0,-1.612129E0,-2.104512E1,1.5216535E0,4.3073845E1,4.3270668E-1,-1.4559658E1,8.539008E0,-1.991379E0,8.442722E1,2.1599936E0,-1.2289714E0,-7.965701E-1,-8.537829E0,1.2442161E1,1.285859E1,-5.270034E-1,-2.953992E-1,1.4926223E-1,2.977609E0,3.3085242E-1,2.8848666E-1,8.149909E-1,3.4336817E0,1.186381E0,1.6473202E1,3.7566307E0,-2.870807E0,2.470748E0,-7.373883E0,8.5841477E-1,1.7713814E0,3.036785E0,4.6383167E1,-1.1009827E1,3.9269507E0,6.2752804E-3,2.1860504E0,3.37969E0,5.442827E0,6.476781E1,5.6996465E0,-2.9960337E0,3.3820507E1,4.982162E0,7.537612E0,1.7954632E1,1.167028E1,3.380305E1,1.131116E1,1.5227843E2],"categories":[],"categories_nodes":[],"categories_segments":[],"categories_sizes":[],"default_left":[0,0,0,0,0,0,0,0,0,0,0,0,0,0,0,0,0,0,0,0,0,0,0,0,0,0,0,0,0,0,0,0,0,0,0,0,0,0,0,0,0,0,0,0,0,0,0,0,0,0,0,0,0,0,0,0,0,0,0,0,0,0,0,0,0,0,0,0,0,0,0,0,0,0,0,0,0,0,0,0,0,0,0,0,0,0,0,0,0,0,0,0,0,0,0,0,0,0,0,0,0,0,0,0,0,0,0,0,0],"id":7,"left_children":[1,3,5,7,9,11,13,15,17,19,21,23,25,27,-1,29,31,33,35,37,39,41,43,45,47,49,51,53,55,57,59,-1,61,63,65,67,69,71,73,75,77,79,81,83,85,87,89,91,93,95,-1,97,99,101,103,105,107,-1,-1,-1,-1,-1,-1,-1,-1,-1,-1,-1,-1,-1,-1,-1,-1,-1,-1,-1,-1,-1,-1,-1,-1,-1,-1,-1,-1,-1,-1,-1,-1,-1,-1,-1,-1,-1,-1,-1,-1,-1,-1,-1,-1,-1,-1,-1,-1,-1,-1,-1,-1],"loss_changes":[3.6584085E6,5.1293438E5,1.2018675E6,1.0625175E5,1.3595612E5,1.7344825E5,6.48454E5,5.0064355E4,8.5344875E4,4.072914E4,3.4361094E4,6.4803188E4,7.265869E4,3.740755E5,0E0,5.271279E4,2.1266984E5,6.655994E4,6.2332375E4,2.7660617E4,2.3594361E4,8.6851875E3,5.3839344E4,6.2676188E4,1.8189862E5,2.6342375E4,6.817422E4,9.24835E4,3.3952525E5,3.541189E4,2.0377586E4,0E0,8.554122E4,1.4736989E5,7.115456E4,3.6734622E5,3.1304E4,5.049266E4,6.756876E4,6.151474E3,8.938805E3,5.769867E3,5.327672E3,6.127514E4,2.7763889E4,3.1441422E4,2.1942875E4,9.918931E4,8.936775E4,1.870275E4,0E0,4.4480638E5,9.4115625E4,6.4235188E4,5.568225E4,1.8804438E5,5.141767E5,0E0,0E0,0E0,0E0,0E0,0E0,0E0,0E0,0E0,0E0,0E0,0E0,0E0,0E0,0E0,0E0,0E0,0E0,0E0,0E0,0E0,0E0,0E0,0E0,0E0,0E0,0E0,0E0,0E0,0E0,0E0,0E0,0E0,0E0,0E0,0E0,0E0,0E0,0E0,0E0,0E0,0E0,0E0,0E0,0E0,0E0,0E0,0E0,0E0,0E0,0E0,0E0],"parents":[2147483647,0,0,1,1,2,2,3,3,4,4,5,5,6,6,7,7,8,8,9,9,10,10,11,11,12,12,13,13,15,15,16,16,17,17,18,18,19,19,20,20,21,21,22,22,23,23,24,24,25,25,26,26,27,27,28,28,29,29,30,30,32,32,33,33,34,34,35,35,36,36,37,37,38,38,39,39,40,40,41,41,42,42,43,43,44,44,45,45,46,46,47,47,48,48,49,49,51,51,52,52,53,53,54,54,55,55,56,56],"right_children":[2,4,6,8,10,12,14,16,18,20,22,24,26,28,-1,30,32,34,36,38,40,42,44,46,48,50,52,54,56,58,60,-1,62,64,66,68,70,72,74,76,78,80,82,84,86,88,90,92,94,96,-1,98,100,102,104,106,108,-1,-1,-1,-1,-1,-1,-1,-1,-1,-1,-1,-1,-1,-1,-1,-1,-1,-1,-1,-1,-1,-1,-1,-1,-1,-1,-1,-1,-1,-1,-1,-1,-1,-1,-1,-1,-1,-1,-1,-1,-1,-1,-1,-1,-1,-1,-1,-1,-1,-1,-1,-1],"split_conditions":[7.45E0,3.03E0,1.635E1,6E0,1.232E3,1.838E3,3.1525E2,6.6E-1,2.94E2,7.72E2,2.392E3,2E0,2.928E3,3.053E1,1.7805505E2,1.6E-1,7.2E-1,8.6E1,4.5E-1,5.4E1,4.68E0,1.684E3,4.14E0,1.269E3,4.82E2,7E0,8.4E0,2.607E3,2.488E4,8E-2,6.1E-1,7.829213E1,3E0,4E0,8E-2,2.98E2,5.04E2,2E0,2.4E2,1.045E3,7.77E2,4.92E0,3.85E0,3.99E3,4.92E0,3.08E2,1.257E1,4E0,5E0,9.88E0,3.7460896E1,8.26E0,2.488E4,1E0,2.488E4,3E0,2E0,1.9538567E0,8.088546E0,-1.612129E0,-2.104512E1,1.5216535E0,4.3073845E1,4.3270668E-1,-1.4559658E1,8.539008E0,-1.991379E0,8.442722E1,2.1599936E0,-1.2289714E0,-7.965701E-1,-8.537829E0,1.2442161E1,1.285859E1,-5.270034E-1,-2.953992E-1,1.4926223E-1,2.977609E0,3.3085242E-1,2.8848666E-1,8.149909E-1,3.4336817E0,1.186381E0,1.6473202E1,3.7566307E0,-2.870807E0,2.470748E0,-7.373883E0,8.5841477E-1,1.7713814E0,3.036785E0,4.6383167E1,-1.1009827E1,3.9269507E0,6.2752804E-3,2.1860504E0,3.37969E0,5.442827E0,6.476781E1,5.6996465E0,-2.9960337E0,3.3820507E1,4.982162E0,7.537612E0,1.7954632E1,1.167028E1,3.380305E1,1.131116E1,1.5227843E2],"split_indices":[1,1,1,0,0,0,1,1,0,0,0,2,0,1,0,1,1,0,1,0,1,0,1,0,0,2,1,0,0,1,1,0,2,2,1,0,0,2,0,0,0,1,1,0,1,0,1,2,2,1,0,1,0,2,0,2,2,0,0,0,0,0,0,0,0,0,0,0,0,0,0,0,0,0,0,0,0,0,0,0,0,0,0,0,0,0,0,0,0,0,0,0,0,0,0,0,0,0,0,0,0,0,0,0,0,0,0,0,0],"split_type":[0,0,0,0,0,0,0,0,0,0,0,0,0,0,0,0,0,0,0,0,0,0,0,0,0,0,0,0,0,0,0,0,0,0,0,0,0,0,0,0,0,0,0,0,0,0,0,0,0,0,0,0,0,0,0,0,0,0,0,0,0,0,0,0,0,0,0,0,0,0,0,0,0,0,0,0,0,0,0,0,0,0,0,0,0,0,0,0,0,0,0,0,0,0,0,0,0,0,0,0,0,0,0,0,0,0,0,0,0],"sum_hessian":[1.67736E5,1.38863E5,2.8873E4,7.867E4,6.0193E4,2.3635E4,5.238E3,6.2E2,7.805E4,4.8123E4,1.207E4,1.7092E4,6.543E3,5.237E3,1E0,5.71E2,4.9E1,1.7514E4,6.0536E4,1.9856E4,2.8267E4,1.1277E4,7.93E2,1.4467E4,2.625E3,5.207E3,1.336E3,4.581E3,6.56E2,3.83E2,1.88E2,3E0,4.6E1,1.866E3,1.5648E4,2.2E2,6.0316E4,8.8E1,1.9768E4,1.6482E4,1.1785E4,8.657E3,2.62E3,1.59E2,6.34E2,7.478E3,6.989E3,1.5E1,2.61E3,5.206E3,1E0,1.05E2,1.231E3,2.748E3,1.833E3,6.47E2,9E0,2.57E2,1.26E2,1.84E2,4E0,4.2E1,4E0,1.806E3,6E1,5.7E1,1.5591E4,4E0,2.16E2,3.0736E4,2.958E4,7.7E1,1.1E1,3.3E1,1.9735E4,1.2907E4,3.575E3,1.15E2,1.167E4,2.744E3,5.913E3,9.8E1,2.522E3,4.9E1,1.1E2,1.04E2,5.3E2,4.1E1,7.437E3,5.386E3,1.603E3,1.2E1,3E0,1.886E3,7.24E2,1.831E3,3.375E3,9.3E1,1.2E1,1.107E3,1.24E2,6E0,2.742E3,1.786E3,4.7E1,6.11E2,3.6E1,6E0,3E0],"tree_param":{"num_deleted":"0","num_feature":"3","num_nodes":"109","size_leaf_vector":"1"}},{"base_weights":[2.133622E-2,-1.2737391E0,8.4593725E0,-2.4862912E0,6.3941735E-1,6.663103E0,2.195661E1,-3.2509968E0,-1.7154918E0,-5.908652E-2,2.6828768E0,4.9605727E0,1.0045211E1,2.1579884E1,1.5134679E2,2.6436338E0,-3.4979339E0,-1.7819022E0,9.547666E0,8.278443E0,-1.3270567E-1,2.2642374E0,7.643491E0,1.0018212E-1,5.6244946E0,9.977206E0,4.684449E1,2.0661026E1,8.885369E1,-9.5284635E-1,2.0884409E1,-5.7889752E0,-2.9989786E0,-2.288112E1,-1.7641329E0,3.182022E1,-2.032596E0,7.510316E1,6.2020454E0,-7.441403E-1,6.2384844E-1,9.731935E-1,2.6983922E0,5.7160735E0,1.5999023E1,2.7921879E1,-1.1728929E0,5.4501247E0,1.8728474E1,9.215845E0,2.0603197E1,1.7385353E1,3.1860537E1,5.154904E1,1.7696039E2,1.194734E-1,-1.0201222E1,9.86343E0,-1.2530383E1,-1.00482896E-1,-1.8655864E0,2.0537968E0,-9.320557E-1,-1.2815309E1,-3.1069224E0,8.355056E0,-5.360929E-1,4.4795212E-1,1.1846321E1,2.5728962E0,-1.383888E0,1.2858878E2,-9.3371296E-1,4.0333197E-1,1.1987855E1,-3.3334666E-1,4.783365E-1,3.298063E-2,5.254221E-1,5.1077336E-1,4.772049E-2,7.262684E-1,1.2437967E0,7.3173606E-1,3.3841887E0,2.0506594E0,1.0347765E1,-8.36083E0,2.0720196E1,-5.647099E-1,8.9017886E-1,1.4532242E0,2.6134837E0,1.5489568E1,-2.876461E0,3.4859627E1,2.743433E0,4.6404295E0,1.0597889E1,4.490784E0,8.673812E0,8.371412E0,4.2605934E1,5.072849E1,-1.9712414E-1,8.402582E0,1.18015785E2],"categories":[],"categories_nodes":[],"categories_segments":[],"categories_sizes":[],"default_left":[0,0,0,0,0,0,0,0,0,0,0,0,0,0,0,0,0,0,0,0,0,0,0,0,0,0,0,0,0,0,0,0,0,0,0,0,0,0,0,0,0,0,0,0,0,0,0,0,0,0,0,0,0,0,0,0,0,0,0,0,0,0,0,0,0,0,0,0,0,0,0,0,0,0,0,0,0,0,0,0,0,0,0,0,0,0,0,0,0,0,0,0,0,0,0,0,0,0,0,0,0,0,0,0,0,0,0],"id":8,"left_children":[1,3,5,7,9,11,13,15,17,19,21,23,25,27,-1,29,31,33,35,37,39,41,43,45,47,49,-1,51,53,55,57,59,61,63,65,67,69,71,73,75,77,79,81,83,85,87,89,91,93,95,97,99,101,103,105,-1,-1,-1,-1,-1,-1,-1,-1,-1,-1,-1,-1,-1,-1,-1,-1,-1,-1,-1,-1,-1,-1,-1,-1,-1,-1,-1,-1,-1,-1,-1,-1,-1,-1,-1,-1,-1,-1,-1,-1,-1,-1,-1,-1,-1,-1,-1,-1,-1,-1,-1,-1],"loss_changes":[1.8330226E6,3.373448E5,5.409706E5,5.245825E4,8.052207E4,1.1337981E5,4.6556538E5,6.5044125E4,3.3174695E4,2.5807172E4,2.9827078E4,4.2288188E4,6.3967875E4,1.6011938E5,0E0,1.1790774E5,4.9003375E4,1.6482266E4,6.71244E4,5.0595914E4,1.9279092E4,7.426414E3,1.7913484E4,5.5853266E4,2.624325E4,5.3148938E4,0E0,9.4316E4,1.059155E5,6.708568E4,2.2379731E5,1.796636E4,3.7421094E4,8.750152E3,2.9838125E4,2.0636484E4,4.748039E3,3.0549762E5,5.8651297E4,1.9784727E4,1.0794119E4,1.9812737E3,3.9740703E3,1.656614E4,3.5182477E4,1.6031836E5,4.435078E3,2.2451562E4,1.4118406E5,4.572753E4,3.2719594E4,5.53525E4,2.5052756E5,1.5966312E5,3.113515E5,0E0,0E0,0E0,0E0,0E0,0E0,0E0,0E0,0E0,0E0,0E0,0E0,0E0,0E0,0E0,0E0,0E0,0E0,0E0,0E0,0E0,0E0,0E0,0E0,0E0,0E0,0E0,0E0,0E0,0E0,0E0,0E0,0E0,0E0,0E0,0E0,0E0,0E0,0E0,0E0,0E0,0E0,0E0,0E0,0E0,0E0,0E0,0E0,0E0,0E0,0E0,0E0],"parents":[2147483647,0,0,1,1,2,2,3,3,4,4,5,5,6,6,7,7,8,8,9,9,10,10,11,11,12,12,13,13,15,15,16,16,17,17,18,18,19,19,20,20,21,21,22,22,23,23,24,24,25,25,27,27,28,28,29,29,30,30,31,31,32,32,33,33,34,34,35,35,36,36,37,37,38,38,39,39,40,40,41,41,42,42,43,43,44,44,45,45,46,46,47,47,48,48,49,49,50,50,51,51,52,52,53,53,54,54],"right_children":[2,4,6,8,10,12,14,16,18,20,22,24,26,28,-1,30,32,34,36,38,40,42,44,46,48,50,-1,52,54,56,58,60,62,64,66,68,70,72,74,76,78,80,82,84,86,88,90,92,94,96,98,100,102,104,106,-1,-1,-1,-1,-1,-1,-1,-1,-1,-1,-1,-1,-1,-1,-1,-1,-1,-1,-1,-1,-1,-1,-1,-1,-1,-1,-1,-1,-1,-1,-1,-1,-1,-1,-1,-1,-1,-1,-1,-1,-1,-1,-1,-1,-1,-1,-1,-1,-1,-1,-1,-1],"split_conditions":[8.85E0,3.41E0,2.124E1,2.04E0,1.256E3,1.32E1,3.1525E2,5.4E1,1.838E3,3.9E2,2.392E3,9.35E2,7E0,2.488E4,1.5134679E2,2E0,2.2E2,2.4E1,3.99E3,3.44E0,9.02E2,5.17E0,2E0,5.83E2,4.944E3,3.99E3,4.684449E1,3.99E3,3.053E1,9.7E-1,4E0,3.1E-1,5.3E-1,2.43E0,1.57E2,2.46E0,2.3E0,2.33E2,2E0,2E0,5.75E0,1.429E3,1.912E3,7.35E0,3.491E3,2.84E2,2E0,2E0,2.488E4,6E0,2E0,2E0,3E0,2.351E1,2E0,1.194734E-1,-1.0201222E1,9.86343E0,-1.2530383E1,-1.00482896E-1,-1.8655864E0,2.0537968E0,-9.320557E-1,-1.2815309E1,-3.1069224E0,8.355056E0,-5.360929E-1,4.4795212E-1,1.1846321E1,2.5728962E0,-1.383888E0,1.2858878E2,-9.3371296E-1,4.0333197E-1,1.1987855E1,-3.3334666E-1,4.783365E-1,3.298063E-2,5.254221E-1,5.1077336E-1,4.772049E-2,7.262684E-1,1.2437967E0,7.3173606E-1,3.3841887E0,2.0506594E0,1.0347765E1,-8.36083E0,2.0720196E1,-5.647099E-1,8.9017886E-1,1.4532242E0,2.6134837E0,1.5489568E1,-2.876461E0,3.4859627E1,2.743433E0,4.6404295E0,1.0597889E1,4.490784E0,8.673812E0,8.371412E0,4.2605934E1,5.072849E1,-1.9712414E-1,8.402582E0,1.18015785E2],"split_indices":[1,1,1,1,0,1,1,0,0,0,0,0,2,0,0,2,0,0,0,1,0,1,2,0,0,0,0,0,1,1,2,1,1,1,0,1,1,0,2,2,1,0,0,1,0,0,2,2,0,0,2,2,2,1,2,0,0,0,0,0,0,0,0,0,0,0,0,0,0,0,0,0,0,0,0,0,0,0,0,0,0,0,0,0,0,0,0,0,0,0,0,0,0,0,0,0,0,0,0,0,0,0,0,0,0,0,0],"split_type":[0,0,0,0,0,0,0,0,0,0,0,0,0,0,0,0,0,0,0,0,0,0,0,0,0,0,0,0,0,0,0,0,0,0,0,0,0,0,0,0,0,0,0,0,0,0,0,0,0,0,0,0,0,0,0,0,0,0,0,0,0,0,0,0,0,0,0,0,0,0,0,0,0,0,0,0,0,0,0,0,0,0,0,0,0,0,0,0,0,0,0,0,0,0,0,0,0,0,0,0,0,0,0,0,0,0,0],"sum_hessian":[1.67736E5,1.45418E5,2.2318E4,8.9006E4,5.6412E4,1.9698E4,2.62E3,4.4678E4,4.4328E4,4.2042E4,1.437E4,1.3104E4,6.594E3,2.619E3,1E0,1.796E3,4.2882E4,4.4069E4,2.59E2,3.67E2,4.1675E4,1.3253E4,1.117E3,1.575E3,1.1529E4,6.592E3,2E0,2.585E3,3.4E1,1.501E3,2.95E2,7.667E3,3.5215E4,3.6E1,4.4033E4,8.8E1,1.71E2,1E1,3.57E2,2.3048E4,1.8627E4,3.336E3,9.917E3,9.09E2,2.08E2,6.8E1,1.507E3,1.1379E4,1.5E2,6.153E3,4.39E2,2.002E3,5.83E2,2.5E1,9E0,1.443E3,5.8E1,2.48E2,4.7E1,5.6E2,7.107E3,3.81E2,3.4834E4,1.3E1,2.3E1,3.3E1,4.4E4,1.8E1,7E1,3.3E1,1.38E2,1E0,9E0,3.13E2,4.4E1,1.9922E4,3.126E3,1.2796E4,5.831E3,1.759E3,1.577E3,8.324E3,1.593E3,5.73E2,3.36E2,1.4E2,6.8E1,2.9E1,3.9E1,1.287E3,2.2E2,9.598E3,1.781E3,6.9E1,8.1E1,3E0,6.15E3,3.27E2,1.12E2,1.657E3,3.45E2,5.64E2,1.9E1,7E0,1.8E1,6E0,3E0],"tree_param":{"num_deleted":"0","num_feature":"3","num_nodes":"107","size_leaf_vector":"1"}},{"base_weights":[1.8947842E-2,-7.704296E-1,6.9659758E0,-1.5842737E0,1.0120457E0,6.9162703E0,1.2864478E2,-2.160732E0,-8.448557E-1,4.2015374E-1,2.3101687E0,5.8531966E0,1.9715685E1,6.0263367E0,-2.2481275E0,-9.30356E-1,1.0704332E1,1.3626732E-1,2.138943E0,1.3323715E0,3.4877877E0,4.274757E0,9.682347E0,1.7365836E2,1.923021E1,3.644857E0,3.756541E1,-1.0514289E1,-2.1632636E0,1.0406871E1,-9.5382875E-1,2.6053051E1,-1.5703271E-1,-1.9086784E1,1.868093E-1,7.0198326E1,1.9752648E0,1.5486823E0,-8.279073E0,3.0814583E0,1.998934E1,3.3908021E0,8.798037E0,8.611358E0,2.0213223E1,3.0494455E1,9.047252E1,1.614485E1,3.363438E1,2.564741E0,-1.9016033E0,2.9830336E1,-3.2873027E0,-4.623623E0,3.1485908E0,4.034342E0,-6.770313E-1,8.259811E-1,4.3367878E1,-3.317306E-1,1.4686728E-1,6.5301285E0,1.873788E1,-4.67884E0,1.0242723E0,-6.593144E0,1.6704212E1,1.8194061E1,5.0812736E-2,3.1308697E1,-4.7037716E0,1.1597878E0,-8.3175355E-1,4.301335E-1,1.0504055E1,2.3981263E-1,-8.269467E0,7.55252E-1,1.1671994E0,1.6917553E1,1.7077549E-1,-8.647531E0,1.0450766E0,3.7180102E0,-8.048174E-1,2.2478015E0,4.0942097E0,6.8709207E0,-2.2281273E1,1.4839051E1,-1.1165452E0,5.2020617E0,-5.4059596E0,1.385456E1,-1.1277757E1],"categories":[],"categories_nodes":[],"categories_segments":[],"categories_sizes":[],"default_left":[0,0,0,0,0,0,0,0,0,0,0,0,0,0,0,0,0,0,0,0,0,0,0,0,0,0,0,0,0,0,0,0,0,0,0,0,0,0,0,0,0,0,0,0,0,0,0,0,0,0,0,0,0,0,0,0,0,0,0,0,0,0,0,0,0,0,0,0,0,0,0,0,0,0,0,0,0,0,0,0,0,0,0,0,0,0,0,0,0,0,0,0,0,0,0],"id":9,"left_children":[1,3,5,7,9,11,-1,13,15,17,19,21,23,25,27,29,31,33,35,37,39,41,43,45,47,49,51,53,55,57,59,61,63,65,67,69,71,73,75,77,79,81,83,85,87,89,-1,91,93,-1,-1,-1,-1,-1,-1,-1,-1,-1,-1,-1,-1,-1,-1,-1,-1,-1,-1,-1,-1,-1,-1,-1,-1,-1,-1,-1,-1,-1,-1,-1,-1,-1,-1,-1,-1,-1,-1,-1,-1,-1,-1,-1,-1,-1,-1],"loss_changes":[9.198461E5,2.1850394E5,3.5590844E5,4.4075625E4,3.627661E4,2.3274988E5,0E0,4.158972E4,4.474483E4,1.5823633E4,1.7021031E4,9.547325E4,9.471322E4,4.5980414E4,4.0309188E4,1.1977402E4,5.551787E4,2.7046275E4,5.1071184E4,1.6811621E4,4.4909258E4,4.472E4,5.184222E4,6.4055844E4,5.7631625E4,2.8060479E4,1.3017885E5,6.025563E4,8.310616E4,9.508986E4,9.842867E3,2.017354E4,1.0860149E4,1.6999375E4,2.9251754E4,3.3909445E4,4.1186355E4,3.0338766E4,3.1187219E4,2.9779492E3,1.13785195E5,2.8091234E4,7.552911E4,2.349175E4,1.0971383E5,2.131244E3,0E0,4.441853E4,2.0729133E5,0E0,0E0,0E0,0E0,0E0,0E0,0E0,0E0,0E0,0E0,0E0,0E0,0E0,0E0,0E0,0E0,0E0,0E0,0E0,0E0,0E0,0E0,0E0,0E0,0E0,0E0,0E0,0E0,0E0,0E0,0E0,0E0,0E0,0E0,0E0,0E0,0E0,0E0,0E0,0E0,0E0,0E0,0E0,0E0,0E0,0E0],"parents":[2147483647,0,0,1,1,2,2,3,3,4,4,5,5,7,7,8,8,9,9,10,10,11,11,12,12,13,13,14,14,15,15,16,16,17,17,18,18,19,19,20,20,21,21,22,22,23,23,24,24,25,25,26,26,27,27,28,28,29,29,30,30,31,31,32,32,33,33,34,34,35,35,36,36,37,37,38,38,39,39,40,40,41,41,42,42,43,43,44,44,45,45,47,47,48,48],"right_children":[2,4,6,8,10,12,-1,14,16,18,20,22,24,26,28,30,32,34,36,38,40,42,44,46,48,50,52,54,56,58,60,62,64,66,68,70,72,74,76,78,80,82,84,86,88,90,-1,92,94,-1,-1,-1,-1,-1,-1,-1,-1,-1,-1,-1,-1,-1,-1,-1,-1,-1,-1,-1,-1,-1,-1,-1,-1,-1,-1,-1,-1,-1,-1,-1,-1,-1,-1,-1,-1,-1,-1,-1,-1,-1,-1,-1,-1,-1,-1],"split_conditions":[1.03E1,4.09E0,3.1525E2,2.38E0,1.309E3,2.737E1,1.2864478E2,6E0,1.912E3,2E0,7.24E0,2.166E3,1E0,6.6E-1,8E-2,2.33E2,3.99E3,5.4E1,2.4E1,4.944E3,3.99E3,2E0,4.944E3,3.154E3,4.944E3,1.6E-1,9.8E-1,1.11E2,2.4E1,2.27E2,1.029E3,3.154E3,2.488E4,9.5E0,8.6E1,3E0,5E0,3.99E3,5.95E0,1.802E3,8.4E0,3.08E2,5E0,2E0,3E0,2.001E3,9.047252E1,5E0,2E0,2.564741E0,-1.9016033E0,2.9830336E1,-3.2873027E0,-4.623623E0,3.1485908E0,4.034342E0,-6.770313E-1,8.259811E-1,4.3367878E1,-3.317306E-1,1.4686728E-1,6.5301285E0,1.873788E1,-4.67884E0,1.0242723E0,-6.593144E0,1.6704212E1,1.8194061E1,5.0812736E-2,3.1308697E1,-4.7037716E0,1.1597878E0,-8.3175355E-1,4.301335E-1,1.0504055E1,2.3981263E-1,-8.269467E0,7.55252E-1,1.1671994E0,1.6917553E1,1.7077549E-1,-8.647531E0,1.0450766E0,3.7180102E0,-8.048174E-1,2.2478015E0,4.0942097E0,6.8709207E0,-2.2281273E1,1.4839051E1,-1.1165452E0,5.2020617E0,-5.4059596E0,1.385456E1,-1.1277757E1],"split_indices":[1,1,1,1,0,1,0,0,0,2,1,0,2,1,1,0,0,0,0,0,0,2,0,0,0,1,1,0,0,0,0,0,0,1,0,2,2,0,1,0,1,0,2,2,2,0,0,2,2,0,0,0,0,0,0,0,0,0,0,0,0,0,0,0,0,0,0,0,0,0,0,0,0,0,0,0,0,0,0,0,0,0,0,0,0,0,0,0,0,0,0,0,0,0,0],"split_type":[0,0,0,0,0,0,0,0,0,0,0,0,0,0,0,0,0,0,0,0,0,0,0,0,0,0,0,0,0,0,0,0,0,0,0,0,0,0,0,0,0,0,0,0,0,0,0,0,0,0,0,0,0,0,0,0,0,0,0,0,0,0,0,0,0,0,0,0,0,0,0,0,0,0,0,0,0,0,0,0,0,0,0,0,0,0,0,0,0,0,0,0,0,0,0],"sum_hessian":[1.67736E5,1.50622E5,1.7114E4,1.03408E5,4.7214E4,1.7113E4,1E0,5.8106E4,4.5302E4,3.2429E4,1.4785E4,1.5802E4,1.311E3,6.13E2,5.7493E4,4.497E4,3.32E2,2.7833E4,4.596E3,8.079E3,6.706E3,1.1191E4,4.611E3,3E0,1.308E3,5.71E2,4.2E1,5.83E2,5.691E4,9.2E1,4.4878E4,1.37E2,1.95E2,7.2E1,2.7761E4,1E1,4.586E3,7.902E3,1.77E2,6.546E3,1.6E2,9.363E3,1.828E3,4.187E3,4.24E2,2E0,1E0,1.079E3,2.29E2,3.83E2,1.88E2,1.8E1,2.4E1,4.73E2,1.1E2,3.38E2,5.6572E4,8.8E1,4E0,4.0604E4,4.274E3,1.24E2,1.3E1,3.6E1,1.59E2,7E1,2E0,7E0,2.7754E4,7E0,3E0,3.28E3,1.306E3,7.876E3,2.6E1,1.21E2,5.6E1,3.86E3,2.686E3,5.5E1,1.05E2,2.6E1,9.337E3,1.392E3,4.36E2,3.428E3,7.59E2,4.13E2,1.1E1,1E0,1E0,1.043E3,3.6E1,1.95E2,3.4E1],"tree_param":{"num_deleted":"0","num_feature":"3","num_nodes":"95","size_leaf_vector":"1"}},{"base_weights":[1.5609957E-2,-4.0321738E-1,6.7081547E0,-9.9076015E-1,1.368688E0,6.6350346E0,1.0934806E2,-2.1287978E0,-6.990221E-1,7.424697E-1,2.4015584E0,5.762774E0,1.886845E1,1.8662503E0,-2.5727983E0,-2.0263807E1,-6.8179077E-1,2.7204898E-1,3.5068915E0,2.5329726E0,-7.0843925E0,5.723735E0,3.7146652E1,1.7099886E1,1.3158467E2,-6.6046524E-1,1.5734473E1,5.894866E0,-2.7558587E0,-1.0830073E1,-1.4317593E1,2.032018E1,-6.933734E-1,-2.1731382E1,3.3956674E-1,8.750838E1,3.2217944E0,2.2899454E0,3.520117E1,1.0996903E1,-4.1595955E1,2.8323765E1,5.674997E0,1.40112E1,6.772626E1,2.6793144E0,9.39997E1,5.1345512E-2,-7.810144E0,2.7678137E0,1.69938E1,-4.326061E0,3.3412418E0,-1.4457872E0,-6.254312E-1,7.5760436E-1,-6.545565E0,-6.240946E-1,1.882434E1,-2.9120448E-1,-2.7791476E-2,-3.8512564E0,-2.0542347E1,3.9530132E0,6.7958936E-2,5.5306725E1,1.4910998E1,1.6701226E0,-6.909238E-1,5.433994E-1,9.984395E-1,4.5312495E0,2.9400934E1,-1.6916078E0,9.408591E1,-8.845153E0,-2.1766693E1,1.3109193E0,2.4137897E0,5.967655E1,3.9236503E0,5.0772163E1,-1.12057705E1],"categories":[],"categories_nodes":[],"categories_segments":[],"categories_sizes":[],"default_left":[0,0,0,0,0,0,0,0,0,0,0,0,0,0,0,0,0,0,0,0,0,0,0,0,0,0,0,0,0,0,0,0,0,0,0,0,0,0,0,0,0,0,0,0,0,0,0,0,0,0,0,0,0,0,0,0,0,0,0,0,0,0,0,0,0,0,0,0,0,0,0,0,0,0,0,0,0,0,0,0,0,0,0],"id":10,"left_children":[1,3,5,7,9,11,-1,13,15,17,19,21,23,25,27,29,31,33,35,37,39,41,-1,43,45,47,49,51,53,-1,55,57,59,61,63,65,67,69,71,73,75,-1,77,79,81,-1,-1,-1,-1,-1,-1,-1,-1,-1,-1,-1,-1,-1,-1,-1,-1,-1,-1,-1,-1,-1,-1,-1,-1,-1,-1,-1,-1,-1,-1,-1,-1,-1,-1,-1,-1,-1,-1],"loss_changes":[4.7017297E5,1.6434366E5,2.560286E5,3.935818E4,2.5424023E4,1.0529675E5,0E0,4.2911312E4,3.1798312E4,3.1826045E4,1.851357E4,4.1794906E4,1.2872025E5,8.480974E4,3.376183E4,7.2989766E3,2.2948484E4,3.1080652E4,8.495108E4,1.16110445E5,1.2713223E5,3.9317656E4,0E0,1.0037814E5,2.2012172E5,4.321911E4,9.8795984E4,4.9258906E4,2.9498875E4,0E0,7.8880664E3,4.9551316E4,1.569741E4,2.5727465E4,3.0256209E4,3.4772734E4,4.598561E4,7.2128047E3,1.3482989E5,6.76366E5,2.410989E4,0E0,2.8486E4,1.029098E5,4.0100056E5,0E0,0E0,0E0,0E0,0E0,0E0,0E0,0E0,0E0,0E0,0E0,0E0,0E0,0E0,0E0,0E0,0E0,0E0,0E0,0E0,0E0,0E0,0E0,0E0,0E0,0E0,0E0,0E0,0E0,0E0,0E0,0E0,0E0,0E0,0E0,0E0,0E0,0E0],"parents":[2147483647,0,0,1,1,2,2,3,3,4,4,5,5,7,7,8,8,9,9,10,10,11,11,12,12,13,13,14,14,15,15,16,16,17,17,18,18,19,19,20,20,21,21,23,23,24,24,25,25,26,26,27,27,28,28,30,30,31,31,32,32,33,33,34,34,35,35,36,36,37,37,38,38,39,39,40,40,42,42,43,43,44,44],"right_children":[2,4,6,8,10,12,-1,14,16,18,20,22,24,26,28,30,32,34,36,38,40,42,-1,44,46,48,50,52,54,-1,56,58,60,62,64,66,68,70,72,74,76,-1,78,80,82,-1,-1,-1,-1,-1,-1,-1,-1,-1,-1,-1,-1,-1,-1,-1,-1,-1,-1,-1,-1,-1,-1,-1,-1,-1,-1,-1,-1,-1,-1,-1,-1,-1,-1,-1,-1,-1,-1],"split_conditions":[1.287E1,5.07E0,3.1525E2,1.46E0,1.397E3,3.053E1,1.0934806E2,8.6E1,2.4E1,2E0,2.488E4,7E0,2.488E4,4.5E-1,3.1E-1,2.11E0,1.11E2,2.2E2,2.4E1,4.944E3,9.33E0,6E0,3.7146652E1,3E0,2E0,4E0,2E0,1.11E2,2.05E2,-1.0830073E1,2.91E0,5.4E1,7.72E2,5.4E1,4.62E2,5.87E0,5E0,9.88E0,1.156E1,9.17E0,1.156E1,2.8323765E1,1.806E1,1E0,5E0,2.6793144E0,9.39997E1,5.1345512E-2,-7.810144E0,2.7678137E0,1.69938E1,-4.326061E0,3.3412418E0,-1.4457872E0,-6.254312E-1,7.5760436E-1,-6.545565E0,-6.240946E-1,1.882434E1,-2.9120448E-1,-2.7791476E-2,-3.8512564E0,-2.0542347E1,3.9530132E0,6.7958936E-2,5.5306725E1,1.4910998E1,1.6701226E0,-6.909238E-1,5.433994E-1,9.984395E-1,4.5312495E0,2.9400934E1,-1.6916078E0,9.408591E1,-8.845153E0,-2.1766693E1,1.3109193E0,2.4137897E0,5.967655E1,3.9236503E0,5.0772163E1,-1.12057705E1],"split_indices":[1,1,1,1,0,1,0,0,0,2,0,2,0,1,1,1,0,0,0,0,1,0,0,2,2,2,2,0,0,0,1,0,0,0,0,1,2,1,1,1,1,0,1,2,2,0,0,0,0,0,0,0,0,0,0,0,0,0,0,0,0,0,0,0,0,0,0,0,0,0,0,0,0,0,0,0,0,0,0,0,0,0,0],"split_type":[0,0,0,0,0,0,0,0,0,0,0,0,0,0,0,0,0,0,0,0,0,0,0,0,0,0,0,0,0,0,0,0,0,0,0,0,0,0,0,0,0,0,0,0,0,0,0,0,0,0,0,0,0,0,0,0,0,0,0,0,0,0,0,0,0,0,0,0,0,0,0,0,0,0,0,0,0,0,0,0,0,0,0],"sum_hessian":[1.67736E5,1.57858E5,9.878E3,1.18549E5,3.9309E4,9.877E3,1E0,2.4188E4,9.4361E4,2.4473E4,1.4836E4,9.221E3,6.56E2,2.419E3,2.1769E4,8.2E1,9.4279E4,2.0915E4,3.558E3,1.4634E4,2.02E2,9.219E3,2E0,6.47E2,9E0,2.047E3,3.72E2,4.6E2,2.1309E4,2.1E1,6.1E1,5.1E1,9.4228E4,6.3E1,2.0852E4,1.1E1,3.547E3,1.4527E4,1.07E2,1.33E2,6.9E1,4E0,9.215E3,6.11E2,3.6E1,6E0,3E0,1.983E3,6.4E1,3.22E2,5E1,9.4E1,3.66E2,5.228E3,1.6081E4,1.9E1,4.2E1,3.4E1,1.7E1,6.4468E4,2.976E4,5.4E1,9E0,1.81E2,2.0671E4,2E0,9E0,2.49E3,1.057E3,9.945E3,4.582E3,8.2E1,2.5E1,1.27E2,6E0,5.1E1,1.8E1,5.945E3,3.27E3,2E0,6.09E2,1.8E1,1.8E1],"tree_param":{"num_deleted":"0","num_feature":"3","num_nodes":"83","size_leaf_vector":"1"}},{"base_weights":[1.4127461E-2,-5.3592795E-1,2.5970154E0,-9.8080283E-1,8.480562E-2,2.5760624E0,9.294584E1,-1.1564784E0,1.4300764E-1,1.2329889E-1,-4.7187357E0,1.8576567E0,7.4808555E0,-2.502052E0,-9.594327E-1,1.3018613E1,-2.341971E-1,4.9249798E-2,6.749387E0,4.9030598E1,-5.4186854E0,5.4137894E1,1.8270397E0,5.669509E0,2.0155924E1,4.3301134E0,-2.9500852E0,8.742928E0,-9.9579555E-1,-9.371926E0,2.4205074E1,6.0399944E-1,-2.255575E0,-1.7837181E1,6.410214E-2,1.5305627E1,3.3946495E0,-6.481731E0,2.6925068E1,-1.8910456E1,-1.7479581E0,2.9182337E1,4.001885E1,3.8020387E-1,2.4083602E0,5.9856324E0,-7.2672787E0,6.795015E1,1.9233013E1,1.6448002E0,-1.03004875E1,-2.9449248E0,-7.7584225E-1,4.8252435E0,-3.0616653E0,-7.9619426E-1,-2.728714E-1,-1.0974934E1,1.8603486E0,1.0109021E1,-9.231021E0,3.3078644E-2,7.930661E-1,9.08818E0,-7.080245E-1,-8.520329E-1,-8.3737E0,-8.608809E-2,1.1073924E-1,8.3965435E0,1.4000051E0,-3.5619056E0,1.7481933E0,8.189026E-1,-5.9611697E0,-1.932533E-1,-8.647023E0,-6.1815076E0,1.8079954E1,4.0330796E0,5.788203E-2,7.177187E-1,2.9717323E1,1.6800604E0,8.060553E0,5.4345804E-1,-1.2938489E1,5.2190294E0,3.0533154E1],"categories":[],"categories_nodes":[],"categories_segments":[],"categories_sizes":[],"default_left":[0,0,0,0,0,0,0,0,0,0,0,0,0,0,0,0,0,0,0,0,0,0,0,0,0,0,0,0,0,0,0,0,0,0,0,0,0,0,0,0,0,0,0,0,0,0,0,0,0,0,0,0,0,0,0,0,0,0,0,0,0,0,0,0,0,0,0,0,0,0,0,0,0,0,0,0,0,0,0,0,0,0,0,0,0,0,0,0,0],"id":11,"left_children":[1,3,5,7,9,11,-1,13,15,17,19,21,23,25,27,29,31,33,35,37,39,41,43,45,47,49,51,53,55,57,59,61,63,65,67,69,71,-1,-1,73,75,-1,77,79,81,83,85,-1,87,-1,-1,-1,-1,-1,-1,-1,-1,-1,-1,-1,-1,-1,-1,-1,-1,-1,-1,-1,-1,-1,-1,-1,-1,-1,-1,-1,-1,-1,-1,-1,-1,-1,-1,-1,-1,-1,-1,-1,-1],"loss_changes":[2.3831061E5,3.8188137E4,1.8877744E5,1.590382E4,1.0675831E4,1.03753516E5,0E0,1.846854E4,5.2897797E4,2.8102469E4,1.7534105E4,4.101897E4,8.6257266E4,2.7249883E4,2.1447957E4,7.787283E4,1.7930572E4,1.5048931E4,1.8117633E4,1.919684E4,2.2451117E4,5.2428906E3,2.1592852E4,1.3510633E4,8.5149375E4,2.4609078E4,2.084346E4,3.174096E4,8.653617E3,4.4298117E4,1.0905057E5,7.5331045E3,1.06233955E4,7.0223193E3,6.060852E3,2.3887297E4,1.7005512E4,0E0,0E0,2.0696016E3,1.068039E4,0E0,1.7199188E4,1.8002182E4,2.8022172E4,2.572679E4,2.5798568E4,0E0,6.9316516E4,0E0,0E0,0E0,0E0,0E0,0E0,0E0,0E0,0E0,0E0,0E0,0E0,0E0,0E0,0E0,0E0,0E0,0E0,0E0,0E0,0E0,0E0,0E0,0E0,0E0,0E0,0E0,0E0,0E0,0E0,0E0,0E0,0E0,0E0,0E0,0E0,0E0,0E0,0E0,0E0],"parents":[2147483647,0,0,1,1,2,2,3,3,4,4,5,5,7,7,8,8,9,9,10,10,11,11,12,12,13,13,14,14,15,15,16,16,17,17,18,18,19,19,20,20,21,21,22,22,23,23,24,24,25,25,26,26,27,27,28,28,29,29,30,30,31,31,32,32,33,33,34,34,35,35,36,36,39,39,40,40,42,42,43,43,44,44,45,45,46,46,48,48],"right_children":[2,4,6,8,10,12,-1,14,16,18,20,22,24,26,28,30,32,34,36,38,40,42,44,46,48,50,52,54,56,58,60,62,64,66,68,70,72,-1,-1,74,76,-1,78,80,82,84,86,-1,88,-1,-1,-1,-1,-1,-1,-1,-1,-1,-1,-1,-1,-1,-1,-1,-1,-1,-1,-1,-1,-1,-1,-1,-1,-1,-1,-1,-1,-1,-1,-1,-1,-1,-1,-1,-1,-1,-1,-1,-1],"split_conditions":[7.35E0,6.89E2,3.1525E2,2E0,2.488E4,2.744E3,9.294584E1,2.27E2,5.4E1,2.392E3,3.1E-1,6E0,3.053E1,6E0,5.3E-1,8E-2,5E0,3.1E-1,4.14E0,8E-2,1.9E0,7.72E0,1.165E3,5E0,1E0,3.07E0,8E-2,4.62E2,1.05E0,6E0,4E0,2.82E0,1.6E-1,8.91E2,4.06E0,3.491E3,4.92E0,-6.481731E0,2.6925068E1,4.5E-1,6.68E0,2.9182337E1,8.4E0,5.32E2,7E0,3E0,3.99E3,6.795015E1,2.488E4,1.6448002E0,-1.03004875E1,-2.9449248E0,-7.7584225E-1,4.8252435E0,-3.0616653E0,-7.9619426E-1,-2.728714E-1,-1.0974934E1,1.8603486E0,1.0109021E1,-9.231021E0,3.3078644E-2,7.930661E-1,9.08818E0,-7.080245E-1,-8.520329E-1,-8.3737E0,-8.608809E-2,1.1073924E-1,8.3965435E0,1.4000051E0,-3.5619056E0,1.7481933E0,8.189026E-1,-5.9611697E0,-1.932533E-1,-8.647023E0,-6.1815076E0,1.8079954E1,4.0330796E0,5.788203E-2,7.177187E-1,2.9717323E1,1.6800604E0,8.060553E0,5.4345804E-1,-1.2938489E1,5.2190294E0,3.0533154E1],"split_indices":[1,0,1,2,0,0,0,0,0,0,1,0,1,0,1,1,2,1,1,1,1,1,0,2,2,1,1,0,1,0,2,1,1,0,1,0,1,0,0,1,1,0,1,0,2,2,0,0,0,0,0,0,0,0,0,0,0,0,0,0,0,0,0,0,0,0,0,0,0,0,0,0,0,0,0,0,0,0,0,0,0,0,0,0,0,0,0,0,0],"split_type":[0,0,0,0,0,0,0,0,0,0,0,0,0,0,0,0,0,0,0,0,0,0,0,0,0,0,0,0,0,0,0,0,0,0,0,0,0,0,0,0,0,0,0,0,0,0,0,0,0,0,0,0,0,0,0,0,0,0,0,0,0,0,0,0,0,0,0,0,0,0,0,0,0,0,0,0,0,0,0,0,0,0,0,0,0,0,0,0,0],"sum_hessian":[1.67736E5,1.38287E5,2.9449E4,8.0554E4,5.7733E4,2.9448E4,1E0,6.9664E4,1.089E4,5.7275E4,4.58E2,2.5687E4,3.761E3,8.897E3,6.0767E4,3.09E2,1.0581E4,5.6643E4,6.32E2,5E0,4.53E2,1.4E1,2.5673E4,3.292E3,4.69E2,5.47E2,8.35E3,2.26E2,6.0541E4,1.03E2,2.06E2,7.48E3,3.101E3,4.6E1,5.6597E4,1.77E2,4.55E2,2E0,3E0,9.6E1,3.57E2,2E0,1.2E1,7.359E3,1.8314E4,3.214E3,7.8E1,1E0,4.68E2,5.32E2,1.5E1,4.19E2,7.931E3,1.63E2,6.3E1,2.991E3,5.755E4,3.7E1,6.6E1,1.76E2,3E1,6.023E3,1.457E3,9E0,3.092E3,1.9E1,2.7E1,2.6313E4,3.0284E4,8E1,9.7E1,6.2E1,3.93E2,4E0,9.2E1,3.44E2,1.3E1,3E0,9E0,1.03E2,7.256E3,1.8312E4,2E0,3.157E3,5.7E1,6.3E1,1.5E1,4.59E2,9E0],"tree_param":{"num_deleted":"0","num_feature":"3","num_nodes":"89","size_leaf_vector":"1"}},{"base_weights":[1.1465571E-2,-1.7208678E-1,4.5248914E0,-4.8761016E-1,8.4429574E-1,4.44522E0,7.900397E1,-6.2593544E-1,3.8659924E-1,9.328312E-1,-4.7600517E0,4.0255566E0,4.6278606E1,-1.5026853E0,-4.6597892E-1,1.0094786E1,1.9932503E-1,8.423806E-1,8.916701E0,-5.0002024E-2,-2.9499683E1,-5.469465E1,4.1518583E0,-1.287145E0,1.7054958E2,3.9498765E0,-1.6781031E0,-7.303632E0,-4.5606232E-1,5.4690046E0,4.2107243E1,8.6175555E-1,-1.4381716E0,7.6640534E0,8.019295E-1,1.0542498E1,-8.874363E1,-7.129293E0,1.2928513E2,-1.7886736E1,-2.7163723E1,-7.601411E1,3.3368748E1,5.391532E1,4.0202794E0,-5.6930172E1,4.409929E1,3.832163E2,3.783708E-1,8.8527733E-1,1.4726556E1,-2.2323036E0,-4.5134813E-1,-3.0566566E0,3.5470135E1,-1.3837436E-1,3.1867666E0,-3.07414E0,3.4531615E0,3.7788765E1,5.0117683E-1,1.2866181E-1,1.3947375E0,-3.887348E0,-3.9830658E-1,-2.4694889E0,4.8509016E0,2.0465617E-1,7.508481E-1,-1.6430981E0,4.5558767E0,-1.4356763E1,-3.2233646E1,-8.881839E-1,-3.2106537E1,2.1589302E2,6.2979083E0,-5.1176615E0,-1.1202057E1,-3.612034E1,5.725604E0,4.609313E1,6.4711165E0,1.189806E0,2.7185215E1,4.7947016E0,-2.0785154E1,3.3824066E1,-1.5331734E1,-3.4687714E1,1.7063039E2,-3.2833824E1,6.5979805E1],"categories":[],"categories_nodes":[],"categories_segments":[],"categories_sizes":[],"default_left":[0,0,0,0,0,0,0,0,0,0,0,0,0,0,0,0,0,0,0,0,0,0,0,0,0,0,0,0,0,0,0,0,0,0,0,0,0,0,0,0,0,0,0,0,0,0,0,0,0,0,0,0,0,0,0,0,0,0,0,0,0,0,0,0,0,0,0,0,0,0,0,0,0,0,0,0,0,0,0,0,0,0,0,0,0,0,0,0,0,0,0,0,0],"id":12,"left_children":[1,3,5,7,9,11,-1,13,15,17,19,21,23,25,27,29,31,33,35,37,39,41,43,45,47,49,51,53,55,57,59,61,63,65,67,69,71,73,75,-1,77,79,-1,81,83,85,87,89,91,-1,-1,-1,-1,-1,-1,-1,-1,-1,-1,-1,-1,-1,-1,-1,-1,-1,-1,-1,-1,-1,-1,-1,-1,-1,-1,-1,-1,-1,-1,-1,-1,-1,-1,-1,-1,-1,-1,-1,-1,-1,-1,-1,-1],"loss_changes":[1.3896248E5,5.1690582E4,1.3399844E5,1.4874049E4,1.895072E4,1.1487535E5,0E0,1.48925625E4,3.0549227E4,2.7138693E4,6.921431E4,4.8359984E4,3.8443728E5,1.5678484E4,6.0865547E3,4.6859992E4,1.7885148E4,1.0250967E4,6.778021E4,4.587222E5,5.0651562E3,5.797867E4,4.219347E4,1.2373162E5,6.512706E5,2.2896814E4,1.5871668E4,4.8291117E4,5.1571055E3,2.6608879E4,1.3542269E5,1.9243945E4,6.0269727E3,2.974248E4,7.5244863E3,3.0955273E4,2.1083984E2,1.974826E5,1.647102E6,0E0,8.617875E3,5.7173242E4,0E0,5.1522902E4,2.9999078E4,2.0923547E4,1.8222319E5,8.062516E5,2.8930753E5,0E0,0E0,0E0,0E0,0E0,0E0,0E0,0E0,0E0,0E0,0E0,0E0,0E0,0E0,0E0,0E0,0E0,0E0,0E0,0E0,0E0,0E0,0E0,0E0,0E0,0E0,0E0,0E0,0E0,0E0,0E0,0E0,0E0,0E0,0E0,0E0,0E0,0E0,0E0,0E0,0E0,0E0,0E0,0E0],"parents":[2147483647,0,0,1,1,2,2,3,3,4,4,5,5,7,7,8,8,9,9,10,10,11,11,12,12,13,13,14,14,15,15,16,16,17,17,18,18,19,19,20,20,21,21,22,22,23,23,24,24,25,25,26,26,27,27,28,28,29,29,30,30,31,31,32,32,33,33,34,34,35,35,36,36,37,37,38,38,40,40,41,41,43,43,44,44,45,45,46,46,47,47,48,48],"right_children":[2,4,6,8,10,12,-1,14,16,18,20,22,24,26,28,30,32,34,36,38,40,42,44,46,48,50,52,54,56,58,60,62,64,66,68,70,72,74,76,-1,78,80,-1,82,84,86,88,90,92,-1,-1,-1,-1,-1,-1,-1,-1,-1,-1,-1,-1,-1,-1,-1,-1,-1,-1,-1,-1,-1,-1,-1,-1,-1,-1,-1,-1,-1,-1,-1,-1,-1,-1,-1,-1,-1,-1,-1,-1,-1,-1,-1,-1],"split_conditions":[1.503E1,1.062E3,3.1525E2,2E0,2.488E4,2.488E4,7.900397E1,1.32E0,5.4E1,3.99E3,9.33E0,4.74E2,2E0,6E0,2.4E1,5.3E-1,5E0,1.9E0,4E0,8.26E0,9.5E0,3E0,1E0,2.124E1,1.714E1,8.5E-1,8E-2,1.287E1,1.453E1,6E0,9.7E-1,5.47E0,1.11E2,1.11E0,2.392E3,4.92E0,4.944E3,7.24E0,8.4E0,-1.7886736E1,1.156E1,2.124E1,3.3368748E1,1.521E3,7E0,1.635E1,2.737E1,1.561E1,3.053E1,8.8527733E-1,1.4726556E1,-2.2323036E0,-4.5134813E-1,-3.0566566E0,3.5470135E1,-1.3837436E-1,3.1867666E0,-3.07414E0,3.4531615E0,3.7788765E1,5.0117683E-1,1.2866181E-1,1.3947375E0,-3.887348E0,-3.9830658E-1,-2.4694889E0,4.8509016E0,2.0465617E-1,7.508481E-1,-1.6430981E0,4.5558767E0,-1.4356763E1,-3.2233646E1,-8.881839E-1,-3.2106537E1,2.1589302E2,6.2979083E0,-5.1176615E0,-1.1202057E1,-3.612034E1,5.725604E0,4.609313E1,6.4711165E0,1.189806E0,2.7185215E1,4.7947016E0,-2.0785154E1,3.3824066E1,-1.5331734E1,-3.4687714E1,1.7063039E2,-3.2833824E1,6.5979805E1],"split_indices":[1,0,1,2,0,0,0,1,0,0,1,0,2,0,0,1,2,1,2,1,1,2,2,1,1,1,1,1,1,0,1,1,0,1,0,1,0,1,1,0,1,1,0,0,2,1,1,1,1,0,0,0,0,0,0,0,0,0,0,0,0,0,0,0,0,0,0,0,0,0,0,0,0,0,0,0,0,0,0,0,0,0,0,0,0,0,0,0,0,0,0,0,0],"split_type":[0,0,0,0,0,0,0,0,0,0,0,0,0,0,0,0,0,0,0,0,0,0,0,0,0,0,0,0,0,0,0,0,0,0,0,0,0,0,0,0,0,0,0,0,0,0,0,0,0,0,0,0,0,0,0,0,0,0,0,0,0,0,0,0,0,0,0,0,0,0,0,0,0,0,0,0,0,0,0,0,0,0,0,0,0,0,0,0,0,0,0,0,0],"sum_hessian":[1.67736E5,1.61182E5,6.554E3,1.22999E5,3.8183E4,6.553E3,1E0,1.06196E5,1.6803E4,3.759E4,5.93E2,6.489E3,6.4E1,1.6384E4,8.9812E4,3.17E2,1.6486E4,3.717E4,4.2E2,4.99E2,9.4E1,1.3E1,6.476E3,4.7E1,1.7E1,5.1E2,1.5874E4,1.29E2,8.9683E4,2.78E2,3.9E1,1.1738E4,4.748E3,2.18E2,3.6952E4,4.14E2,6E0,4.74E2,2.5E1,5E0,8.9E1,1.2E1,1E0,1.6E1,6.46E3,2.1E1,2.6E1,7E0,1E1,5E2,1E1,4.63E2,1.5411E4,1.27E2,2E0,8.9642E4,4.1E1,7.7E1,2.01E2,1.2E1,2.7E1,1.0535E4,1.203E3,4.4E1,4.704E3,7.6E1,1.42E2,3.4523E4,2.429E3,9.3E1,3.21E2,3E0,3E0,4.56E2,1.8E1,3E0,2.2E1,4.6E1,4.3E1,8E0,4E0,3E0,1.3E1,6.457E3,3E0,3E0,1.8E1,1.5E1,1.1E1,2E0,5E0,7E0,3E0],"tree_param":{"num_deleted":"0","num_feature":"3","num_nodes":"93","size_leaf_vector":"1"}},{"base_weights":[1.1206262E-2,8.537318E-3,6.715338E1,-2.1568917E-1,1.832844E0,-2.0943627E-1,-6.691158E1,1.55949E0,9.350205E0,-2.1616061E-1,2.0285719E1,-2.832083E1,2.5417053E1,9.743775E-1,3.4300663E0,4.3864957E2,7.32957E0,-5.0314814E-1,1.0809368E-1,5.2334595E-1,3.636901E1,5.9393433E1,-1.1476813E1,1.182922E0,-3.5338414E0,3.0109386E0,3.633409E1,1.1091312E1,1.86301E2,-4.9350324E-1,1.8248684E1,-1.492017E-1,-1.2684869E1,3.3409577E-2,-1.1440174E1,1.894642E0,-6.477422E0,1.6327745E1,1.547029E0,-8.483643E0,3.521069E1,3.256473E-1,2.0227716E0,1.03017315E-1,-6.983874E0,6.090009E-1,2.2119386E0,4.8878765E1,-2.6647666E0,1.7663893E0,-8.663777E0,3.8489408E0,6.5538826E1],"categories":[],"categories_nodes":[],"categories_segments":[],"categories_sizes":[],"default_left":[0,0,0,0,0,0,0,0,0,0,0,0,0,0,0,0,0,0,0,0,0,0,0,0,0,0,0,0,0,0,0,0,0,0,0,0,0,0,0,0,0,0,0,0,0,0,0,0,0,0,0,0,0],"id":13,"left_children":[1,3,-1,5,7,9,11,13,15,17,19,-1,21,23,25,27,29,31,33,35,37,39,-1,41,43,45,47,-1,-1,49,51,-1,-1,-1,-1,-1,-1,-1,-1,-1,-1,-1,-1,-1,-1,-1,-1,-1,-1,-1,-1,-1,-1],"loss_changes":[1.0020398E5,6.861413E4,0E0,6.2282586E4,3.7713402E4,2.0589227E4,3.7934562E4,1.9387871E4,5.554276E5,1.3894941E4,1.5555322E4,0E0,1.0925683E4,1.2693575E4,5.8102355E4,1.9678356E5,5.4849316E4,1.920344E4,8.775444E3,3.0824634E3,1.4936363E4,1.856759E4,0E0,6.980924E3,4.5713605E4,1.7824297E4,3.048302E5,0E0,0E0,6.809857E4,2.8796012E5,0E0,0E0,0E0,0E0,0E0,0E0,0E0,0E0,0E0,0E0,0E0,0E0,0E0,0E0,0E0,0E0,0E0,0E0,0E0,0E0,0E0,0E0],"parents":[2147483647,0,0,1,1,3,3,4,4,5,5,6,6,7,7,8,8,9,9,10,10,12,12,13,13,14,14,15,15,16,16,17,17,18,18,19,19,20,20,21,21,23,23,24,24,25,25,26,26,29,29,30,30],"right_children":[2,4,-1,6,8,10,12,14,16,18,20,-1,22,24,26,28,30,32,34,36,38,40,-1,42,44,46,48,-1,-1,50,52,-1,-1,-1,-1,-1,-1,-1,-1,-1,-1,-1,-1,-1,-1,-1,-1,-1,-1,-1,-1,-1,-1],"split_conditions":[3.1525E2,1.609E3,6.715338E1,3.053E1,3.053E1,2.737E1,2E0,1.561E1,1.632E3,6.76E2,1.429E3,-2.832083E1,1.445E3,2.488E4,2.488E4,2E0,3.99E3,1.503E1,8E0,1.397E3,1.521E3,1.429E3,-1.1476813E1,4.944E3,9.33E0,2E0,1.714E1,1.1091312E1,1.86301E2,3.491E3,3E0,-1.492017E-1,-1.2684869E1,3.3409577E-2,-1.1440174E1,1.894642E0,-6.477422E0,1.6327745E1,1.547029E0,-8.483643E0,3.521069E1,3.256473E-1,2.0227716E0,1.03017315E-1,-6.983874E0,6.090009E-1,2.2119386E0,4.8878765E1,-2.6647666E0,1.7663893E0,-8.663777E0,3.8489408E0,6.5538826E1],"split_indices":[1,0,0,1,1,1,2,1,0,0,0,0,0,0,0,2,0,1,2,0,0,0,0,0,1,2,1,0,0,0,2,0,0,0,0,0,0,0,0,0,0,0,0,0,0,0,0,0,0,0,0,0,0],"split_type":[0,0,0,0,0,0,0,0,0,0,0,0,0,0,0,0,0,0,0,0,0,0,0,0,0,0,0,0,0,0,0,0,0,0,0,0,0,0,0,0,0,0,0,0,0,0,0,0,0,0,0,0,0],"sum_hessian":[1.67736E5,1.67735E5,1E0,1.49376E5,1.8359E4,1.49363E5,1.3E1,1.7716E4,6.43E2,1.49315E5,4.8E1,1E1,3E0,1.3496E4,4.22E3,2E0,6.41E2,7.9209E4,7.0106E4,2.2E1,2.6E1,2E0,1E0,1.29E4,5.96E2,4.168E3,5.2E1,1E0,1E0,3.74E2,2.67E2,7.9199E4,1E1,7.0101E4,5E0,1.8E1,4E0,1.6E1,1E1,1E0,1E0,1.2679E4,2.21E2,4.99E2,9.7E1,3.404E3,7.64E2,1.3E1,3.9E1,3.06E2,6.8E1,2.61E2,6E0],"tree_param":{"num_deleted":"0","num_feature":"3","num_nodes":"53","size_leaf_vector":"1"}},{"base_weights":[9.914402E-3,7.6458016E-3,5.7080387E1,-1.8151864E-1,1.2401979E0,-2.805546E-1,4.357484E-1,1.472228E0,-4.607493E0,-2.6287985E-1,-4.554795E0,3.3236337E-1,1.9399582E1,1.1008373E0,1.9725939E1,-4.9622097E0,2.154992E1,-1.0330404E0,-1.8662584E-1,-2.0157158E0,-3.330844E1,6.3176756E0,2.3749113E-1,3.7055473E1,1.5287561E1,8.9618725E-1,7.0903473E0,1.5478729E1,9.7402695E1,-4.130127E0,-4.314724E1,-3.2134843E-1,3.1903597E1,-3.3706017E0,-5.4147348E-2,-1.8223501E0,1.00965675E2,3.2178335E0,-5.445655E0,-6.891749E-1,1.2266404E-1,1.1132113E1,9.148431E-1,1.3737869E1,2.6222005E-1,3.9048984E0,-5.778476E0,1.0406106E1,-3.5068998E-1,1.2828268E1,7.079621E1,-1.1183652E0,-7.323465E0,-1.5819057E0,-4.2169685E1],"categories":[],"categories_nodes":[],"categories_segments":[],"categories_sizes":[],"default_left":[0,0,0,0,0,0,0,0,0,0,0,0,0,0,0,0,0,0,0,0,0,0,0,0,0,0,0,0,0,0,0,0,0,0,0,0,0,0,0,0,0,0,0,0,0,0,0,0,0,0,0,0,0,0,0],"id":14,"left_children":[1,3,-1,5,7,9,11,13,15,17,19,21,23,25,27,29,-1,31,33,35,-1,37,39,-1,41,43,45,47,49,51,53,-1,-1,-1,-1,-1,-1,-1,-1,-1,-1,-1,-1,-1,-1,-1,-1,-1,-1,-1,-1,-1,-1,-1,-1],"loss_changes":[7.23971E4,3.910872E4,0E0,8.88982E3,3.0288754E4,9.465779E3,3.94129E4,1.4550862E5,2.345823E4,7.3289824E3,1.3927381E5,1.1354164E4,4.4778754E4,2.5783502E4,1.396936E5,2.6797162E4,0E0,4.6135723E4,7.6949004E3,6.960024E5,0E0,3.3851324E4,8.553496E3,0E0,2.819188E4,2.0166297E4,1.0878266E5,1.3018847E5,1.5650433E5,6.696509E3,6.56724E4,0E0,0E0,0E0,0E0,0E0,0E0,0E0,0E0,0E0,0E0,0E0,0E0,0E0,0E0,0E0,0E0,0E0,0E0,0E0,0E0,0E0,0E0,0E0,0E0],"parents":[2147483647,0,0,1,1,3,3,4,4,5,5,6,6,7,7,8,8,9,9,10,10,11,11,12,12,13,13,14,14,15,15,17,17,18,18,19,19,21,21,22,22,24,24,25,25,26,26,27,27,28,28,29,29,30,30],"right_children":[2,4,-1,6,8,10,12,14,16,18,20,22,24,26,28,30,-1,32,34,36,-1,38,40,-1,42,44,46,48,50,52,54,-1,-1,-1,-1,-1,-1,-1,-1,-1,-1,-1,-1,-1,-1,-1,-1,-1,-1,-1,-1,-1,-1,-1,-1],"split_conditions":[3.1525E2,8.85E0,5.7080387E1,2E0,5E0,4.944E3,3.491E3,3E0,7E0,2.51E2,8.4E0,5.4E1,3.1E-1,4.944E3,3.99E3,3.053E1,2.154992E1,8.13E0,8E-2,8.26E0,-3.330844E1,4E0,1.01E0,3.7055473E1,2.488E4,6E0,2E0,1.632E3,3.053E1,3.99E3,3.491E3,-3.2134843E-1,3.1903597E1,-3.3706017E0,-5.4147348E-2,-1.8223501E0,1.00965675E2,3.2178335E0,-5.445655E0,-6.891749E-1,1.2266404E-1,1.1132113E1,9.148431E-1,1.3737869E1,2.6222005E-1,3.9048984E0,-5.778476E0,1.0406106E1,-3.5068998E-1,1.2828268E1,7.079621E1,-1.1183652E0,-7.323465E0,-1.5819057E0,-4.2169685E1],"split_indices":[1,1,0,2,2,0,0,2,2,0,1,0,1,0,0,1,0,1,1,1,0,2,1,0,0,0,2,0,1,0,0,0,0,0,0,0,0,0,0,0,0,0,0,0,0,0,0,0,0,0,0,0,0,0,0],"split_type":[0,0,0,0,0,0,0,0,0,0,0,0,0,0,0,0,0,0,0,0,0,0,0,0,0,0,0,0,0,0,0,0,0,0,0,0,0,0,0,0,0,0,0,0,0,0,0,0,0,0,0,0,0,0,0],"sum_hessian":[1.67736E5,1.67735E5,1E0,1.45418E5,2.2317E4,1.25313E5,2.0105E4,2.1466E4,8.51E2,1.24798E5,5.15E2,1.9997E4,1.08E2,2.1039E4,4.27E2,8.48E2,3E0,1.1242E4,1.13556E5,5.04E2,1.1E1,3.11E2,1.9686E4,3E0,1.05E2,2.0345E4,6.94E2,4.06E2,2.1E1,8.31E2,1.7E1,1.1239E4,3E0,6.2E1,1.13494E5,4.99E2,5E0,2.64E2,4.7E1,1.246E3,1.844E4,3.7E1,6.8E1,9E0,2.0336E4,5.67E2,1.27E2,1.88E2,2.18E2,1.6E1,5E0,8.16E2,1.5E1,1.3E1,4E0],"tree_param":{"num_deleted":"0","num_feature":"3","num_nodes":"55","size_leaf_vector":"1"}},{"base_weights":[8.564452E-3,6.6361423E-3,4.8518337E1,-9.2234276E-2,1.5929828E0,-2.1346241E-1,4.1242948E-1,8.5495126E-1,3.444863E0,9.396918E-1,-2.4556981E-1,9.3918705E0,3.52417E-1,1.1009102E0,-4.0543275E0,5.030438E1,3.3263993E0,-2.4398827E1,1.1766411E0,-2.1348083E0,-1.8558045E-1,-5.892272E1,1.1061122E1,9.076008E-2,1.7717303E0,6.225127E-1,4.2208023E0,-2.3145816E0,-2.4708427E1,-3.7229767E0,5.6170277E1,8.492196E0,2.4837244E0,-1.400138E1,2.2712471E0,-6.5945446E-1,6.753711E-1,5.449393E0,-7.3928034E-1,1.5401134E0,-5.8696676E-2,-1.992759E1,-4.3368683E0,-8.629041E-1,5.35299E0,4.6757195E-2,-1.1605069E1,4.4751525E-1,2.5247927E1,3.0325618E-1,-1.0123389E0,6.84058E-1,7.684608E0,-1.0462866E1,-5.6525654E-1,-3.7953546E0,-2.1845587E1,6.4382997E0,-3.9155915E0,1.6920422E0,1.0034786E1,-8.497765E-1,1.2989415E0],"categories":[],"categories_nodes":[],"categories_segments":[],"categories_sizes":[],"default_left":[0,0,0,0,0,0,0,0,0,0,0,0,0,0,0,0,0,0,0,0,0,0,0,0,0,0,0,0,0,0,0,0,0,0,0,0,0,0,0,0,0,0,0,0,0,0,0,0,0,0,0,0,0,0,0,0,0,0,0,0,0,0,0],"id":15,"left_children":[1,3,-1,5,7,9,11,13,15,17,19,21,23,25,27,29,31,33,35,37,39,41,43,45,47,49,51,53,55,57,-1,59,61,-1,-1,-1,-1,-1,-1,-1,-1,-1,-1,-1,-1,-1,-1,-1,-1,-1,-1,-1,-1,-1,-1,-1,-1,-1,-1,-1,-1,-1,-1],"loss_changes":[5.2306832E4,2.6308322E4,0E0,9.660077E3,1.3447201E4,4.7140034E3,1.647721E4,8.502715E3,1.5398094E4,2.0736316E4,1.4037859E4,2.3800705E4,1.1282526E4,1.0001924E4,1.201626E4,5.248278E4,1.2158848E4,2.313868E4,1.2400564E4,2.5538822E4,6.4350645E3,7.0780664E2,1.8862082E4,6.4756793E4,1.0897105E5,9.026292E3,3.6934543E4,4.2927363E3,1.4160746E4,1.6897554E3,0E0,2.771352E4,2.3635387E4,0E0,0E0,0E0,0E0,0E0,0E0,0E0,0E0,0E0,0E0,0E0,0E0,0E0,0E0,0E0,0E0,0E0,0E0,0E0,0E0,0E0,0E0,0E0,0E0,0E0,0E0,0E0,0E0,0E0,0E0],"parents":[2147483647,0,0,1,1,3,3,4,4,5,5,6,6,7,7,8,8,9,9,10,10,11,11,12,12,13,13,14,14,15,15,16,16,17,17,18,18,19,19,20,20,21,21,22,22,23,23,24,24,25,25,26,26,27,27,28,28,29,29,31,31,32,32],"right_children":[2,4,-1,6,8,10,12,14,16,18,20,22,24,26,28,30,32,34,36,38,40,42,44,46,48,50,52,54,56,58,-1,60,62,-1,-1,-1,-1,-1,-1,-1,-1,-1,-1,-1,-1,-1,-1,-1,-1,-1,-1,-1,-1,-1,-1,-1,-1,-1,-1,-1,-1,-1,-1],"split_conditions":[3.1525E2,2.053E3,4.8518337E1,6E0,1.806E1,5.3E-1,4.58E2,3E0,1E0,1E0,8.5E-1,1E0,2E0,2E0,1.635E1,3.053E1,2.302E3,5.4E1,8E-2,5.4E1,8.6E1,2.84E2,8.6E1,3.053E1,3.053E1,2.488E4,2.488E4,1.08E0,3.491E3,2.607E3,5.6170277E1,3.053E1,2.744E3,-1.400138E1,2.2712471E0,-6.5945446E-1,6.753711E-1,5.449393E0,-7.3928034E-1,1.5401134E0,-5.8696676E-2,-1.992759E1,-4.3368683E0,-8.629041E-1,5.35299E0,4.6757195E-2,-1.1605069E1,4.4751525E-1,2.5247927E1,3.0325618E-1,-1.0123389E0,6.84058E-1,7.684608E0,-1.0462866E1,-5.6525654E-1,-3.7953546E0,-2.1845587E1,6.4382997E0,-3.9155915E0,1.6920422E0,1.0034786E1,-8.497765E-1,1.2989415E0],"split_indices":[1,0,0,1,1,1,0,2,2,2,1,2,2,2,1,1,0,0,1,0,0,0,0,1,1,0,0,1,0,0,0,1,0,0,0,0,0,0,0,0,0,0,0,0,0,0,0,0,0,0,0,0,0,0,0,0,0,0,0,0,0,0,0],"split_type":[0,0,0,0,0,0,0,0,0,0,0,0,0,0,0,0,0,0,0,0,0,0,0,0,0,0,0,0,0,0,0,0,0,0,0,0,0,0,0,0,0,0,0,0,0,0,0,0,0,0,0,0,0,0,0,0,0,0,0,0,0,0,0],"sum_hessian":[1.67736E5,1.67735E5,1E0,1.57895E5,9.84E3,1.27313E5,3.0582E4,7.037E3,2.803E3,3.448E3,1.23865E5,2.02E2,3.038E4,6.702E3,3.35E2,6E0,2.797E3,3.1E1,3.417E3,3.811E3,1.20054E5,4E0,1.98E2,2.5652E4,4.728E3,5.812E3,8.9E2,3.1E2,2.5E1,5E0,1E0,3.91E2,2.406E3,1.8E1,1.3E1,8.25E2,2.592E3,6E1,3.751E3,2.26E2,1.19828E5,3E0,1E0,6.5E1,1.33E2,2.561E4,4.2E1,4.713E3,1.5E1,5.298E3,5.14E2,8.17E2,7.3E1,3E0,3.07E2,2.1E1,4E0,1E0,4E0,3.52E2,3.9E1,6.2E2,1.786E3],"tree_param":{"num_deleted":"0","num_feature":"3","num_nodes":"63","size_leaf_vector":"1"}},{"base_weights":[6.466554E-3,4.8274854E-3,4.124059E1,-1.4984806E-1,5.443646E-1,-1.4550397E-1,-2.1114697E1,5.38481E-1,1.6612595E1,1.8070873E0,-1.6619875E-1,-3.0708433E1,6.587134E1,6.4019454E-1,-2.1490026E0,-1.1130823E-2,1.5921659E1,-9.534407E-1,-1.104504E-1,-4.1094547E1,-1.1019806E1,2.610322E1,3.5388842E0,4.8602208E-1,8.673272E0,-1.6650577E0,-3.821794E1,1.7726786E0,-8.260021E-1,1.225426E1,-3.0546374E0,9.988952E-1,-4.0051043E-1,-2.2684999E0,-2.887669E-2,-2.5273256E1,-5.907296E0,7.2280703E0,-5.2795067E0,6.57953E-2,3.9499232E-1,1.85439E0,1.8688154E1,-3.7385604E-1,-5.4879847E0,-3.1838105E0,-3.236071E1],"categories":[],"categories_nodes":[],"categories_segments":[],"categories_sizes":[],"default_left":[0,0,0,0,0,0,0,0,0,0,0,0,0,0,0,0,0,0,0,0,0,0,0,0,0,0,0,0,0,0,0,0,0,0,0,0,0,0,0,0,0,0,0,0,0,0,0],"id":16,"left_children":[1,3,-1,5,7,9,11,13,-1,15,17,19,21,23,25,27,29,31,33,35,37,-1,-1,39,41,43,45,-1,-1,-1,-1,-1,-1,-1,-1,-1,-1,-1,-1,-1,-1,-1,-1,-1,-1,-1,-1],"loss_changes":[3.779214E4,1.3998187E4,0E0,1.1869608E4,1.20267295E4,5.2670557E3,2.4554871E4,1.0216597E4,0E0,3.5082004E4,5.6601445E3,4.6593555E3,2.4029395E3,4.4590953E4,2.3728053E4,1.9691928E4,1.01918805E5,1.394426E4,1.2738431E4,1.3118045E4,2.7339575E3,0E0,0E0,7.826578E3,9.0209984E4,9.3522E3,3.3464445E4,0E0,0E0,0E0,0E0,0E0,0E0,0E0,0E0,0E0,0E0,0E0,0E0,0E0,0E0,0E0,0E0,0E0,0E0,0E0,0E0],"parents":[2147483647,0,0,1,1,3,3,4,4,5,5,6,6,7,7,9,9,10,10,11,11,12,12,13,13,14,14,15,15,16,16,17,17,18,18,19,19,20,20,23,23,24,24,25,25,26,26],"right_children":[2,4,-1,6,8,10,12,14,-1,16,18,20,22,24,26,28,30,32,34,36,38,-1,-1,40,42,44,46,-1,-1,-1,-1,-1,-1,-1,-1,-1,-1,-1,-1,-1,-1,-1,-1,-1,-1,-1,-1],"split_conditions":[3.1525E2,1.165E3,4.124059E1,1.947E1,7E0,1.6E-1,3E0,5E0,1.6612595E1,1.11E2,9.8E-1,1.029E3,8.74E2,3E0,3.053E1,6E0,2.98E2,5.4E1,5.4E1,2.124E1,1.07E3,2.610322E1,3.5388842E0,1.287E1,3.99E3,3.99E3,3.491E3,1.7726786E0,-8.260021E-1,1.225426E1,-3.0546374E0,9.988952E-1,-4.0051043E-1,-2.2684999E0,-2.887669E-2,-2.5273256E1,-5.907296E0,7.2280703E0,-5.2795067E0,6.57953E-2,3.9499232E-1,1.85439E0,1.8688154E1,-3.7385604E-1,-5.4879847E0,-3.1838105E0,-3.236071E1],"split_indices":[1,0,0,1,2,1,2,2,0,0,1,0,0,2,1,0,0,0,0,1,0,0,0,1,0,0,0,0,0,0,0,0,0,0,0,0,0,0,0,0,0,0,0,0,0,0,0],"split_type":[0,0,0,0,0,0,0,0,0,0,0,0,0,0,0,0,0,0,0,0,0,0,0,0,0,0,0,0,0,0,0,0,0,0,0,0,0,0,0,0,0,0,0,0,0,0,0],"sum_hessian":[1.67736E5,1.67735E5,1E0,1.30363E5,3.7372E4,1.30337E5,2.6E1,3.7369E4,3E0,1.366E3,1.28971E5,2.4E1,2E0,3.6007E4,1.362E3,1.211E3,1.55E2,8.528E3,1.20443E5,1.5E1,9E0,1E0,1E0,3.533E4,6.77E2,1.345E3,1.7E1,3.83E2,8.28E2,7.9E1,7.6E1,6.97E2,7.831E3,2.28E2,1.20215E5,4E0,1.1E1,1E0,8E0,2.6744E4,8.586E3,6.48E2,2.9E1,1.313E3,3.2E1,1.3E1,4E0],"tree_param":{"num_deleted":"0","num_feature":"3","num_nodes":"47","size_leaf_vector":"1"}},{"base_weights":[4.8026945E-3,3.4094816E-3,3.505452E1,4.7742777E-2,-1.1046418E0,1.7977031E-2,6.5318456E0,-2.4270523E1,-1.0143864E0,-7.62577E-2,8.314261E-1,4.654285E0,2.3450558E2,-3.2416997E0,-1.3029715E1,3.9553886E1,-1.0647651E0,-9.51759E-2,5.060249E0,9.857872E-1,-1.1756178E1,3.8468165E0,1.2129082E2,1.527296E2,7.776725E1,6.4864445E0,-3.7830997E1,9.960932E1,2.9338543E0,-9.709144E-1,-1.8669094E1,-7.103439E-2,3.414663E-2,-1.0973037E0,8.433849E0,1.539974E-1,2.415488E0,9.917043E-1,-3.4152157E1,1.2600051E0,-1.8339746E1,-5.8801613E0,4.8424137E1,-4.622025E1,8.5103874E1,-5.443043E0,1.1901314E1,-1.8821661E1,1.7977124E0,4.7921806E1,-3.0976114E0,-2.8789341E0,5.5988917E0,-2.1590377E-1,-1.9661824E0,-3.891481E0,-3.1002953E1],"categories":[],"categories_nodes":[],"categories_segments":[],"categories_sizes":[],"default_left":[0,0,0,0,0,0,0,0,0,0,0,0,0,0,0,0,0,0,0,0,0,0,0,0,0,0,0,0,0,0,0,0,0,0,0,0,0,0,0,0,0,0,0,0,0,0,0,0,0,0,0,0,0,0,0,0,0],"id":17,"left_children":[1,3,-1,5,7,9,11,13,15,17,19,21,23,25,-1,27,29,31,33,35,37,39,41,-1,43,45,47,49,51,53,55,-1,-1,-1,-1,-1,-1,-1,-1,-1,-1,-1,-1,-1,-1,-1,-1,-1,-1,-1,-1,-1,-1,-1,-1,-1,-1],"loss_changes":[2.7305172E4,8.239843E3,0E0,3.1128367E4,1.3467602E4,1.2306895E4,3.1436994E5,9.932989E3,1.3181549E4,1.3981895E4,3.2398125E4,6.847341E4,2.1864434E5,4.6197544E3,0E0,1.7301613E4,1.0592162E4,4.242623E3,1.0621538E5,5.4968383E4,3.1096744E5,1.6964883E4,3.1428688E4,0E0,2.8239394E5,9.710446E3,3.6505952E3,2.1480498E4,1.3616417E3,8.956831E3,1.506209E4,0E0,0E0,0E0,0E0,0E0,0E0,0E0,0E0,0E0,0E0,0E0,0E0,0E0,0E0,0E0,0E0,0E0,0E0,0E0,0E0,0E0,0E0,0E0,0E0,0E0,0E0],"parents":[2147483647,0,0,1,1,3,3,4,4,5,5,6,6,7,7,8,8,9,9,10,10,11,11,12,12,13,13,15,15,16,16,17,17,18,18,19,19,20,20,21,21,22,22,24,24,25,25,26,26,27,27,28,28,29,29,30,30],"right_children":[2,4,-1,6,8,10,12,14,16,18,20,22,24,26,-1,28,30,32,34,36,38,40,42,-1,44,46,48,50,52,54,56,-1,-1,-1,-1,-1,-1,-1,-1,-1,-1,-1,-1,-1,-1,-1,-1,-1,-1,-1,-1,-1,-1,-1,-1,-1,-1],"split_conditions":[3.1525E2,5E0,3.505452E1,4E0,2.4E1,2E0,3.053E1,6E0,8E-2,3.053E1,4.944E3,4.944E3,1.632E3,1.6E-1,-1.3029715E1,6E0,3.99E3,8.18E2,4.944E3,1.4E1,3.053E1,3.99E3,3.51E0,1.527296E2,3.154E3,8E-2,6.6E-1,5.4E1,7E0,1.4E1,3.053E1,-7.103439E-2,3.414663E-2,-1.0973037E0,8.433849E0,1.539974E-1,2.415488E0,9.917043E-1,-3.4152157E1,1.2600051E0,-1.8339746E1,-5.8801613E0,4.8424137E1,-4.622025E1,8.5103874E1,-5.443043E0,1.1901314E1,-1.8821661E1,1.7977124E0,4.7921806E1,-3.0976114E0,-2.8789341E0,5.5988917E0,-2.1590377E-1,-1.9661824E0,-3.891481E0,-3.1002953E1],"split_indices":[1,2,0,2,0,2,1,0,1,1,0,0,0,1,0,2,0,0,0,1,1,0,1,0,0,1,1,0,2,1,1,0,0,0,0,0,0,0,0,0,0,0,0,0,0,0,0,0,0,0,0,0,0,0,0,0,0],"split_type":[0,0,0,0,0,0,0,0,0,0,0,0,0,0,0,0,0,0,0,0,0,0,0,0,0,0,0,0,0,0,0,0,0,0,0,0,0,0,0,0,0,0,0,0,0,0,0,0,0,0,0,0,0,0,0,0,0],"sum_hessian":[1.67736E5,1.67735E5,1E0,1.61283E5,6.452E3,1.60547E5,7.36E2,2.4E1,6.428E3,1.4388E5,1.6667E4,7.31E2,5E0,1.2E1,1.2E1,7E0,6.421E3,1.43353E5,5.27E2,1.6466E4,2.01E2,7.27E2,4E0,1E0,4E0,1E1,2E0,2E0,5E0,6.388E3,3.3E1,8.5454E4,5.7899E4,3.83E2,1.44E2,1.5435E4,1.031E3,1.76E2,2.5E1,7.24E2,3E0,1E0,3E0,2E0,2E0,6E0,4E0,1E0,1E0,1E0,1E0,3E0,2E0,6.114E3,2.74E2,3.2E1,1E0],"tree_param":{"num_deleted":"0","num_feature":"3","num_nodes":"57","size_leaf_vector":"1"}},{"base_weights":[4.647351E-3,3.4631228E-3,2.979635E1,-2.5975062E-2,1.0488768E0,-1.66167E-2,-8.137546E0,3.8853398E-1,6.8422065E0,-2.864276E-2,6.153526E0,-5.4151325E0,-2.6944464E1,2.0051666E1,3.0228156E-1,3.3848312E1,1.791088E0,-7.169204E-4,-7.186837E-1,1.6457561E1,2.6641293E0,-9.156042E0,2.2209143E2,1.9003923E0,3.438265E1,-7.7064953E0,6.1405134E-1,1.783438E1,8.267864E1,4.7850075E1,9.900542E-1,-1.007208E-2,5.286719E-1,-3.4013853E0,-1.8147367E-1,3.4501023E0,1.3952211E1,-2.5538605E-1,1.9294497E0,-1.4971254E1,-1.4706773E0,1.2982016E2,-2.9879005E1,7.4027677E0,-6.3765554E0,-6.5700536E0,1.5357264E1,1.8956276E1,-3.4536757E0,1.8596075E1,1.655333E-1,-4.620551E0,1.2741868E1,3.529735E1,-2.074889E1,1.7865046E0,-6.430494E0],"categories":[],"categories_nodes":[],"categories_segments":[],"categories_sizes":[],"default_left":[0,0,0,0,0,0,0,0,0,0,0,0,0,0,0,0,0,0,0,0,0,0,0,0,0,0,0,0,0,0,0,0,0,0,0,0,0,0,0,0,0,0,0,0,0,0,0,0,0,0,0,0,0,0,0,0,0],"id":18,"left_children":[1,3,-1,5,7,9,11,13,15,17,19,21,-1,23,25,27,29,31,33,35,37,39,41,43,45,47,49,51,53,-1,55,-1,-1,-1,-1,-1,-1,-1,-1,-1,-1,-1,-1,-1,-1,-1,-1,-1,-1,-1,-1,-1,-1,-1,-1,-1,-1],"loss_changes":[1.9727777E4,5.1621157E3,0E0,1.2384214E4,1.7572072E4,1.209192E4,4.1317203E4,6.9899087E3,6.405257E4,3.1340679E3,1.1353847E4,1.5778138E5,0E0,4.61692E3,1.0261974E4,5.639093E4,4.9995242E4,9.054591E3,7.6360234E3,1.138223E4,3.157516E3,3.1128771E4,2.4638231E5,5.270909E3,1.0581234E4,4.227749E4,1.508146E4,4.7330945E4,1.0374089E5,0E0,4.421806E4,0E0,0E0,0E0,0E0,0E0,0E0,0E0,0E0,0E0,0E0,0E0,0E0,0E0,0E0,0E0,0E0,0E0,0E0,0E0,0E0,0E0,0E0,0E0,0E0,0E0,0E0],"parents":[2147483647,0,0,1,1,3,3,4,4,5,5,6,6,7,7,8,8,9,9,10,10,11,11,13,13,14,14,15,15,16,16,17,17,18,18,19,19,20,20,21,21,22,22,23,23,24,24,25,25,26,26,27,27,28,28,30,30],"right_children":[2,4,-1,6,8,10,12,14,16,18,20,22,-1,24,26,28,30,32,34,36,38,40,42,44,46,48,50,52,54,-1,56,-1,-1,-1,-1,-1,-1,-1,-1,-1,-1,-1,-1,-1,-1,-1,-1,-1,-1,-1,-1,-1,-1,-1,-1,-1,-1],"split_conditions":[3.1525E2,2.744E3,2.979635E1,3.053E1,3.053E1,2.737E1,5E0,1.6E-1,3.154E3,5E0,1.769E3,4E0,-2.6944464E1,8E-2,2E0,2E0,1E0,3E0,8.6E1,1.71E3,2.302E3,1.659E3,1.632E3,4.944E3,3.491E3,3.491E3,2.01E0,2.928E3,6E0,4.7850075E1,2E0,-1.007208E-2,5.286719E-1,-3.4013853E0,-1.8147367E-1,3.4501023E0,1.3952211E1,-2.5538605E-1,1.9294497E0,-1.4971254E1,-1.4706773E0,1.2982016E2,-2.9879005E1,7.4027677E0,-6.3765554E0,-6.5700536E0,1.5357264E1,1.8956276E1,-3.4536757E0,1.8596075E1,1.655333E-1,-4.620551E0,1.2741868E1,3.529735E1,-2.074889E1,1.7865046E0,-6.430494E0],"split_indices":[1,0,0,1,1,1,2,1,0,2,0,2,0,1,1,2,2,2,0,0,0,0,0,0,0,0,1,0,2,0,2,0,0,0,0,0,0,0,0,0,0,0,0,0,0,0,0,0,0,0,0,0,0,0,0,0,0],"split_type":[0,0,0,0,0,0,0,0,0,0,0,0,0,0,0,0,0,0,0,0,0,0,0,0,0,0,0,0,0,0,0,0,0,0,0,0,0,0,0,0,0,0,0,0,0,0,0,0,0,0,0,0,0,0,0,0,0],"sum_hessian":[1.67736E5,1.67735E5,1E0,1.63142E5,4.593E3,1.62955E5,1.87E2,4.124E3,4.69E2,1.62639E5,3.16E2,1.82E2,5E0,1.7E1,4.107E3,7.3E1,3.96E2,1.56314E5,6.325E3,7.9E1,2.37E2,1.8E2,2E0,8E0,9E0,1.53E2,3.954E3,5.6E1,1.7E1,1E0,3.95E2,1.53455E5,2.859E3,6.6E1,6.259E3,6.9E1,1E1,1.23E2,1.14E2,1.6E1,1.64E2,1E0,1E0,4E0,4E0,2E0,7E0,7E0,1.46E2,3E0,3.951E3,2.4E1,3.2E1,1.4E1,3E0,3.24E2,7.1E1],"tree_param":{"num_deleted":"0","num_feature":"3","num_nodes":"57","size_leaf_vector":"1"}},{"base_weights":[4.517835E-3,3.511245E-3,2.5326893E1,-3.8045365E-2,5.216156E-1,-4.6924602E-2,1.00175495E1,3.7823358E0,3.2858986E-1,-3.77938E-2,-4.823503E0,6.6150856E-1,4.4837925E1,8.936748E0,-2.3776136E-1,-6.4226675E0,4.4238603E-1,-2.4031916E0,-2.9208386E-2,4.9312523E1,-5.7339706E0,8.212432E0,-2.1475534E1,7.7388176E1,-1.546141E1,-1.1113483E1,1.1164458E1,-3.248372E0,6.295239E0,-2.4173512E0,-2.2907331E1,6.70118E0,3.1480807E-1,-8.4185797E-1,3.34312E1,3.6267173E-1,-1.5108874E-2,3.046941E1,-5.8131475E0,-8.152873E0,-1.3177428E0,-1.0516883E0,4.4071035E0,-1.0154643E1,8.860382E0,3.4516457E1,-7.0196276E0,-1.636671E1,1.2708863E1,8.6097676E-1,-1.1039628E1,1.1461459E0,5.528259E0,3.5117028E0,-1.531228E0,1.4780376E0,1.7954107E1,-4.6908998E-1,-2.2871425E0,-1.566586E1,-3.1721117E0,-6.743911E-3,8.026987E0,9.168583E-2,1.0477356E1],"categories":[],"categories_nodes":[],"categories_segments":[],"categories_sizes":[],"default_left":[0,0,0,0,0,0,0,0,0,0,0,0,0,0,0,0,0,0,0,0,0,0,0,0,0,0,0,0,0,0,0,0,0,0,0,0,0,0,0,0,0,0,0,0,0,0,0,0,0,0,0,0,0,0,0,0,0,0,0,0,0,0,0,0,0],"id":19,"left_children":[1,3,-1,5,7,9,11,13,15,17,19,21,23,25,27,29,31,33,35,37,39,41,43,45,47,49,51,53,55,57,59,61,63,-1,-1,-1,-1,-1,-1,-1,-1,-1,-1,-1,-1,-1,-1,-1,-1,-1,-1,-1,-1,-1,-1,-1,-1,-1,-1,-1,-1,-1,-1,-1,-1],"loss_changes":[1.4253121E4,3.6114868E3,0E0,1.3864984E4,7.8379707E3,6.766355E3,4.460232E4,1.4424106E4,9.037664E3,3.1446309E3,1.4872336E4,1.8396273E4,5.811653E4,1.374724E4,7.7304307E3,1.2819752E4,9.233159E3,2.6004336E4,4.0412327E3,1.991396E4,8.279921E3,6.2760005E3,1.867226E4,7.4822E4,2.7177729E4,1.1239808E4,1.4598043E4,7.5246416E3,8.792212E3,6.9036505E2,1.3185826E4,3.1150023E4,3.594354E3,0E0,0E0,0E0,0E0,0E0,0E0,0E0,0E0,0E0,0E0,0E0,0E0,0E0,0E0,0E0,0E0,0E0,0E0,0E0,0E0,0E0,0E0,0E0,0E0,0E0,0E0,0E0,0E0,0E0,0E0,0E0,0E0],"parents":[2147483647,0,0,1,1,3,3,4,4,5,5,6,6,7,7,8,8,9,9,10,10,11,11,12,12,13,13,14,14,15,15,16,16,17,17,18,18,19,19,20,20,21,21,22,22,23,23,24,24,25,25,26,26,27,27,28,28,29,29,30,30,31,31,32,32],"right_children":[2,4,-1,6,8,10,12,14,16,18,20,22,24,26,28,30,32,34,36,38,40,42,44,46,48,50,52,54,56,58,60,62,64,-1,-1,-1,-1,-1,-1,-1,-1,-1,-1,-1,-1,-1,-1,-1,-1,-1,-1,-1,-1,-1,-1,-1,-1,-1,-1,-1,-1,-1,-1,-1,-1],"split_conditions":[3.1525E2,1.874E3,2.5326893E1,2.737E1,4.43E0,2.124E1,2E0,4.944E3,4.97E0,1E0,8.74E2,3.053E1,1.769E3,1.11E0,3.04E0,4.944E3,5.47E0,1.635E1,8.6E1,2.351E1,1.269E3,1.482E3,1.802E3,5E0,1.838E3,3.491E3,2.23E3,9.3E-1,3E0,2.928E3,2.488E4,2.928E3,7E0,-8.4185797E-1,3.34312E1,3.6267173E-1,-1.5108874E-2,3.046941E1,-5.8131475E0,-8.152873E0,-1.3177428E0,-1.0516883E0,4.4071035E0,-1.0154643E1,8.860382E0,3.4516457E1,-7.0196276E0,-1.636671E1,1.2708863E1,8.6097676E-1,-1.1039628E1,1.1461459E0,5.528259E0,3.5117028E0,-1.531228E0,1.4780376E0,1.7954107E1,-4.6908998E-1,-2.2871425E0,-1.566586E1,-3.1721117E0,-6.743911E-3,8.026987E0,9.168583E-2,1.0477356E1],"split_indices":[1,0,0,1,1,1,2,0,1,2,0,1,0,1,1,0,1,1,0,1,0,0,0,2,0,0,0,1,2,0,0,0,2,0,0,0,0,0,0,0,0,0,0,0,0,0,0,0,0,0,0,0,0,0,0,0,0,0,0,0,0,0,0,0,0],"split_type":[0,0,0,0,0,0,0,0,0,0,0,0,0,0,0,0,0,0,0,0,0,0,0,0,0,0,0,0,0,0,0,0,0,0,0,0,0,0,0,0,0,0,0,0,0,0,0,0,0,0,0,0,0,0,0,0,0,0,0,0,0,0,0,0,